svm_type c_svc
kernel_type rbf
gamma 0.5
nr_class 2
total_sv 396
rho 4.76999
label 1 0
nr_sv 209 187
SV
35.71337139914597 1:0.094999999 2:0.027000001 3:0.097000003 4:0.050999999 5:0.090999998 6:0.074000001 7:0.089000002 8:0.030999999 9:0.092 10:0.035 11:0.096000001 12:0.016000001 13:0.11 14:0.016000001 15:0.12 16:0.016000001 17:0.11 18:0.023 19:0.098999999 20:0.030999999 21:0.093000002 22:0.023 23:0.097000003 24:0.023 25:0.097999997 26:0.023 27:0.1 28:0.023 29:0.12 30:0.012 31:0.12 32:0.016000001 33:0.11 34:0.093999997 35:0.082999997 36:0.074000001 37:0.11 38:0.035 39:0.1 40:0.035 41:0.1 42:0.035 43:0.11 44:0.016000001 45:0.11 46:0.0038999999 47:0.12 48:0.0038999999 49:0.1 50:0.086000003 51:0.1 52:0.063000001 53:0.11 54:0.043000001 55:0.11 56:0.039000001 57:0.12 58:0.027000001 59:0.12 60:0.023 61:0.13 62:0.035 63:0.14 64:0.0077999998 65:0.086999997 66:0.090000004 67:0.1 68:0.035 69:0.1 70:0.039000001 71:0.11 72:0.043000001 73:0.12 74:0.030999999 75:0.13 76:0.023 77:0.12 78:0.055 79:0.14 80:0.030999999 81:0.075999998 82:0.090000004 83:0.098999999 84:0.035 85:0.1 86:0.043000001 87:0.11 88:0.043000001 89:0.12 90:0.035 91:0.13 92:0.027000001 93:0.14 94:0.035 95:0.14 96:0.0077999998 97:0.11 98:0.035 99:0.11 100:0.055 101:0.11 102:0.043000001 103:0.12 104:0.043000001 105:0.12 106:0.059 107:0.12 108:0.030999999 109:0.13 110:0.039000001 111:0.14 112:0.023 113:0.097999997 114:0.046999998 115:0.098999999 116:0.035 117:0.1 118:0.043000001 119:0.11 120:0.055 121:0.11 122:0.043000001 123:0.12 124:0.035 125:0.12 126:0.039000001 127:0.13 128:0.035 
43.57842057939879 1:0.098999999 2:0.023 3:0.1 4:0.027000001 5:0.1 6:0.030999999 7:0.1 8:0.035 9:0.11 10:0.039000001 11:0.12 12:0.023 13:0.12 14:0.02 15:0.13 16:0.016000001 17:0.11 18:0.023 19:0.11 20:0.023 21:0.11 22:0.030999999 23:0.11 24:0.039000001 25:0.12 26:0.039000001 27:0.13 28:0.023 29:0.13 30:0.030999999 31:0.13 32:0.030999999 33:0.11 34:0.035 35:0.061000001 36:0.063000001 37:0.11 38:0.039000001 39:0.11 40:0.043000001 41:0.12 42:0.043000001 43:0.13 44:0.0077999998 45:0.14 46:0.0077999998 47:0.14 48:0.0077999998 49:0.11 50:0.050999999 51:0.1 52:0.039000001 53:0.11 54:0.050999999 55:0.12 56:0.039000001 57:0.13 58:0.039000001 59:0.13 60:0.039000001 61:0.13 62:0.063000001 63:0.14 64:0.012 65:0.097000003 66:0.086000003 67:0.11 68:0.059 69:0.11 70:0.043000001 71:0.11 72:0.043000001 73:0.13 74:0.035 75:0.13 76:0.043000001 77:0.11 78:0.082000002 79:0.13 80:0.059 81:0.081 82:0.074000001 83:0.050000001 84:0.066 85:0.088 86:0.050999999 87:0.11 88:0.046999998 89:0.12 90:0.035 91:0.12 92:0.046999998 93:0.12 94:0.063000001 95:0.14 96:0.043000001 97:0.1 98:0.027000001 99:0.1 100:0.035 101:0.11 102:0.035 103:0.11 104:0.059 105:0.11 106:0.046999998 107:0.12 108:0.050999999 109:0.12 110:0.050999999 111:0.13 112:0.030999999 113:0.098999999 114:0.027000001 115:0.1 116:0.035 117:0.1 118:0.035 119:0.11 120:0.055 121:0.11 122:0.055 123:0.11 124:0.050999999 125:0.11 126:0.046999998 127:0.12 128:0.066 
26.46925261043364 1:0.098999999 2:0.023 3:0.1 4:0.023 5:0.1 6:0.035 7:0.1 8:0.039000001 9:0.11 10:0.043000001 11:0.11 12:0.02 13:0.12 14:0.016000001 15:0.13 16:0.02 17:0.1 18:0.023 19:0.11 20:0.023 21:0.11 22:0.027000001 23:0.11 24:0.035 25:0.12 26:0.035 27:0.12 28:0.030999999 29:0.13 30:0.030999999 31:0.13 32:0.030999999 33:0.11 34:0.039000001 35:0.059999999 36:0.066 37:0.12 38:0.046999998 39:0.11 40:0.039000001 41:0.12 42:0.046999998 43:0.13 44:0.0077999998 45:0.13 46:0.0077999998 47:0.14 48:0.0077999998 49:0.1 50:0.066 51:0.1 52:0.043000001 53:0.11 54:0.050999999 55:0.11 56:0.043000001 57:0.12 58:0.035 59:0.13 60:0.035 61:0.13 62:0.07 63:0.14 64:0.012 65:0.093999997 66:0.050999999 67:0.1 68:0.035 69:0.11 70:0.030999999 71:0.11 72:0.043000001 73:0.12 74:0.039000001 75:0.12 76:0.043000001 77:0.11 78:0.11 79:0.13 80:0.074000001 81:0.077 82:0.066 83:0.050000001 84:0.063000001 85:0.089000002 86:0.07 87:0.11 88:0.043000001 89:0.12 90:0.046999998 91:0.12 92:0.046999998 93:0.12 94:0.063000001 95:0.13 96:0.039000001 97:0.1 98:0.039000001 99:0.1 100:0.043000001 101:0.11 102:0.043000001 103:0.11 104:0.050999999 105:0.11 106:0.055 107:0.12 108:0.055 109:0.11 110:0.046999998 111:0.13 112:0.035 113:0.098999999 114:0.030999999 115:0.098999999 116:0.035 117:0.1 118:0.039000001 119:0.1 120:0.043000001 121:0.1 122:0.055 123:0.1 124:0.046999998 125:0.1 126:0.050999999 127:0.11 128:0.059 
0.46510556624248 1:0.0086000003 2:0.074000001 3:0.011 4:0.050999999 5:0.011 6:0.090000004 7:0.0083999997 8:0.11 9:0.012 10:0.1 11:0.0099999998 12:0.13 13:0.012 14:0.14 15:0.0097000003 16:0.059 17:0.011 18:0.063000001 19:0.012 20:0.13 21:0.011 22:0.13 23:0.0099999998 24:0.14 25:0.011 26:0.15000001 27:0.012 28:0.19 29:0.0094999997 30:0.19 31:0.0098000001 32:0.11 33:0.015 34:0.14 35:0.016000001 36:0.16 37:0.016000001 38:0.17 39:0.011 40:0.074000001 41:0.014 42:0.11 43:0.013 44:0.12 45:0.014 46:0.14 47:0.012 48:0.059 49:0.014 50:0.059 51:0.0099999998 52:0.15000001 53:0.014 54:0.12 55:0.015 56:0.082000002 57:0.017000001 58:0.07 59:0.014 60:0.16 61:0.013 62:0.16 63:0.013 64:0.090000004 65:0.014 66:0.035 67:0.015 68:0.12 69:0.017999999 70:0.11 71:0.016000001 72:0.066 73:0.017000001 74:0.074000001 75:0.012 76:0.063000001 77:0.013 78:0.11 79:0.014 80:0.059 81:0.017000001 82:0.17 83:0.024 84:0.17 85:0.017999999 86:0.14 87:0.017999999 88:0.050999999 89:0.018999999 90:0.050999999 91:0.016000001 92:0.078000002 93:0.015 94:0.12 95:0.017999999 96:0.059 97:0.016000001 98:0.16 99:0.021 100:0.14 101:0.022 102:0.14 103:0.024 104:0.059 105:0.023 106:0.043000001 107:0.024 108:0.13 109:0.018999999 110:0.16 111:0.025 112:0.11 113:0.017000001 114:0.15000001 115:0.02 116:0.18000001 117:0.017999999 118:0.16 119:0.017000001 120:0.16 121:0.018999999 122:0.16 123:0.02 124:0.13 125:0.02 126:0.14 127:0.02 128:0.13 
23.91462711552902 1:0.0099999998 2:0.016000001 3:0.011 4:0.023 5:0.013 6:0.039000001 7:0.012 8:0.030999999 9:0.011 10:0.043000001 11:0.011 12:0.030999999 13:0.0098000001 14:0.016000001 15:0.0096000005 16:0.0077999998 17:0.015 18:0.1 19:0.016000001 20:0.1 21:0.016000001 22:0.046999998 23:0.016000001 24:0.043000001 25:0.015 26:0.035 27:0.012 28:0.035 29:0.0099999998 30:0.023 31:0.0098999999 32:0.012 33:0.022 34:0.13 35:0.02 36:0.15000001 37:0.022 38:0.15000001 39:0.017999999 40:0.074000001 41:0.017999999 42:0.082000002 43:0.013 44:0.046999998 45:0.011 46:0.02 47:0.012 48:0.02 49:0.024 50:0.14 51:0.015 52:0.074000001 53:0.026000001 54:0.15000001 55:0.026000001 56:0.14 57:0.025 58:0.16 59:0.025 60:0.1 61:0.021 62:0.16 63:0.016000001 64:0.02 65:0.026000001 66:0.11 67:0.024 68:0.11 69:0.027000001 70:0.11 71:0.023 72:0.16 73:0.024 74:0.14 75:0.022 76:0.13 77:0.022 78:0.12 79:0.018999999 80:0.02 81:0.027000001 82:0.035 83:0.029999999 84:0.035 85:0.026000001 86:0.14 87:0.024 88:0.13 89:0.027000001 90:0.14 91:0.028000001 92:0.055 93:0.017000001 94:0.11 95:0.024 96:0.059 97:0.027000001 98:0.030999999 99:0.028999999 100:0.043000001 101:0.026000001 102:0.11 103:0.025 104:0.11 105:0.028999999 106:0.11 107:0.027000001 108:0.13 109:0.026000001 110:0.14 111:0.028999999 112:0.14 113:0.026000001 114:0.093999997 115:0.028999999 116:0.1 117:0.032000002 118:0.13 119:0.030999999 120:0.14 121:0.028999999 122:0.15000001 123:0.029999999 124:0.11 125:0.028999999 126:0.11 127:0.028999999 128:0.11 
32.94112850234795 1:0.017999999 2:0.035 3:0.02 4:0.039000001 5:0.017000001 6:0.055 7:0.017999999 8:0.055 9:0.017000001 10:0.055 11:0.016000001 12:0.046999998 13:0.012 14:0.023 15:0.014 16:0.02 17:0.026000001 18:0.13 19:0.025 20:0.13 21:0.021 22:0.050999999 23:0.015 24:0.046999998 25:0.017999999 26:0.050999999 27:0.017000001 28:0.050999999 29:0.011 30:0.016000001 31:0.014 32:0.030999999 33:0.028000001 34:0.13 35:0.024 36:0.16 37:0.024 38:0.14 39:0.018999999 40:0.13 41:0.018999999 42:0.18000001 43:0.018999999 44:0.074000001 45:0.021 46:0.12 47:0.021 48:0.023 49:0.027000001 50:0.11 51:0.012 52:0.093999997 53:0.027000001 54:0.14 55:0.027000001 56:0.13 57:0.026000001 58:0.12 59:0.021 60:0.11 61:0.022 62:0.13 63:0.027000001 64:0.050999999 65:0.029999999 66:0.1 67:0.024 68:0.1 69:0.026000001 70:0.13 71:0.027000001 72:0.14 73:0.028000001 74:0.14 75:0.026000001 76:0.14 77:0.024 78:0.14 79:0.025 80:0.043000001 81:0.029999999 82:0.027000001 83:0.034000002 84:0.043000001 85:0.030999999 86:0.14 87:0.033 88:0.14 89:0.032000002 90:0.12 91:0.028999999 92:0.15000001 93:0.023 94:0.13 95:0.028000001 96:0.097999997 97:0.030999999 98:0.030999999 99:0.035 100:0.039000001 101:0.033 102:0.14 103:0.035999998 104:0.13 105:0.033 106:0.086000003 107:0.028000001 108:0.14 109:0.029999999 110:0.15000001 111:0.028000001 112:0.14 113:0.029999999 114:0.082000002 115:0.030999999 116:0.097999997 117:0.033 118:0.14 119:0.034000002 120:0.15000001 121:0.033 122:0.15000001 123:0.034000002 124:0.18000001 125:0.030999999 126:0.14 127:0.029999999 128:0.14 
11.42190691743221 1:0.0099999998 2:0.13 3:0.012 4:0.14 5:0.0099999998 6:0.078000002 7:0.0098000001 8:0.12 9:0.0099999998 10:0.16 11:0.011 12:0.18000001 13:0.011 14:0.063000001 15:0.0098999999 16:0.046999998 17:0.011 18:0.14 19:0.013 20:0.13 21:0.011 22:0.059 23:0.013 24:0.19 25:0.014 26:0.25 27:0.018999999 28:0.27000001 29:0.02 30:0.25999999 31:0.012 32:0.19 33:0.013 34:0.086000003 35:0.017000001 36:0.11 37:0.011 38:0.14 39:0.013 40:0.13 41:0.011 42:0.18000001 43:0.012 44:0.18000001 45:0.015 46:0.19 47:0.011 48:0.059 49:0.015 50:0.066 51:0.017999999 52:0.13 53:0.0099999998 54:0.13 55:0.015 56:0.14 57:0.012 58:0.14 59:0.0099999998 60:0.2 61:0.013 62:0.23 63:0.013 64:0.13 65:0.016000001 66:0.086000003 67:0.016000001 68:0.093999997 69:0.0060999999 70:0.11 71:0.016000001 72:0.12 73:0.012 74:0.15000001 75:0.012 76:0.15000001 77:0.012 78:0.15000001 79:0.017999999 80:0.15000001 81:0.018999999 82:0.090000004 83:0.014 84:0.1 85:0.0077999998 86:0.14 87:0.014 88:0.16 89:0.017000001 90:0.18000001 91:0.013 92:0.16 93:0.014 94:0.18000001 95:0.022 96:0.18000001 97:0.02 98:0.12 99:0.02 100:0.14 101:0.022 102:0.082000002 103:0.02 104:0.1 105:0.016000001 106:0.15000001 107:0.016000001 108:0.18000001 109:0.013 110:0.16 111:0.026000001 112:0.097999997 113:0.021 114:0.13 115:0.021 116:0.1 117:0.021 118:0.11 119:0.018999999 120:0.11 121:0.015 122:0.11 123:0.014 124:0.14 125:0.013 126:0.15000001 127:0.02 128:0.12 
0.2661357162543626 1:0.016000001 2:0.16 3:0.017999999 4:0.14 5:0.017000001 6:0.13 7:0.017999999 8:0.11 9:0.017999999 10:0.12 11:0.02 12:0.12 13:0.016000001 14:0.12 15:0.014 16:0.12 17:0.014 18:0.097999997 19:0.016000001 20:0.1 21:0.014 22:0.035 23:0.014 24:0.16 25:0.014 26:0.19 27:0.02 28:0.23 29:0.021 30:0.2 31:0.02 32:0.2 33:0.014 34:0.035 35:0.018999999 36:0.12 37:0.013 38:0.090000004 39:0.012 40:0.16 41:0.012 42:0.18000001 43:0.016000001 44:0.23 45:0.016000001 46:0.17 47:0.014 48:0.12 49:0.016000001 50:0.082000002 51:0.021 52:0.11 53:0.017999999 54:0.12 55:0.016000001 56:0.15000001 57:0.014 58:0.19 59:0.012 60:0.20999999 61:0.016000001 62:0.20999999 63:0.016000001 64:0.15000001 65:0.018999999 66:0.093999997 67:0.022 68:0.11 69:0.017999999 70:0.12 71:0.017000001 72:0.046999998 73:0.015 74:0.12 75:0.017000001 76:0.046999998 77:0.016000001 78:0.11 79:0.02 80:0.14 81:0.021 82:0.082000002 83:0.022 84:0.097999997 85:0.017999999 86:0.11 87:0.014 88:0.14 89:0.014 90:0.18000001 91:0.012 92:0.20999999 93:0.014 94:0.19 95:0.017999999 96:0.22 97:0.024 98:0.11 99:0.024 100:0.1 101:0.024 102:0.13 103:0.013 104:0.039000001 105:0.013 106:0.074000001 107:0.015 108:0.11 109:0.015 110:0.14 111:0.018999999 112:0.16 113:0.022 114:0.043000001 115:0.026000001 116:0.13 117:0.02 118:0.11 119:0.017999999 120:0.14 121:0.015 122:0.14 123:0.014 124:0.19 125:0.016000001 126:0.19 127:0.02 128:0.14 
2.390977336495913 1:0.028999999 2:0.12 3:0.033 4:0.14 5:0.028999999 6:0.18000001 7:0.026000001 8:0.13 9:0.023 10:0.14 11:0.02 12:0.12 13:0.022 14:0.13 15:0.021 16:0.11 17:0.026000001 18:0.11 19:0.027000001 20:0.13 21:0.024 22:0.14 23:0.024 24:0.18000001 25:0.023 26:0.13 27:0.023 28:0.15000001 29:0.022 30:0.17 31:0.02 32:0.15000001 33:0.032000002 34:0.12 35:0.037 36:0.15000001 37:0.027000001 38:0.15000001 39:0.023 40:0.2 41:0.023 42:0.2 43:0.023 44:0.16 45:0.02 46:0.046999998 47:0.017000001 48:0.035 49:0.037 50:0.13 51:0.033 52:0.1 53:0.026000001 54:0.18000001 55:0.024 56:0.20999999 57:0.023 58:0.17 59:0.025 60:0.16 61:0.025 62:0.15000001 63:0.021 64:0.050999999 65:0.032000002 66:0.082000002 67:0.034000002 68:0.093999997 69:0.024 70:0.17 71:0.027000001 72:0.2 73:0.024 74:0.2 75:0.024 76:0.2 77:0.026000001 78:0.14 79:0.022 80:0.15000001 81:0.037 82:0.14 83:0.037 84:0.07 85:0.029999999 86:0.16 87:0.027000001 88:0.18000001 89:0.026000001 90:0.20999999 91:0.027000001 92:0.20999999 93:0.025 94:0.20999999 95:0.023 96:0.043000001 97:0.035 98:0.14 99:0.037 100:0.15000001 101:0.035 102:0.16 103:0.029999999 104:0.18000001 105:0.030999999 106:0.18000001 107:0.028999999 108:0.2 109:0.033 110:0.2 111:0.029999999 112:0.16 113:0.043000001 114:0.15000001 115:0.045000002 116:0.16 117:0.041000001 118:0.16 119:0.037999999 120:0.16 121:0.035999998 122:0.16 123:0.035 124:0.18000001 125:0.037999999 126:0.18000001 127:0.035 128:0.18000001 
16.35091741508741 1:0.012 2:0.082000002 3:0.0097000003 4:0.13 5:0.0094999997 6:0.13 7:0.0086000003 8:0.086000003 9:0.0088999998 10:0.082000002 11:0.0087000001 12:0.093999997 13:0.0098000001 14:0.14 15:0.0097000003 16:0.086000003 17:0.016000001 18:0.02 19:0.013 20:0.016000001 21:0.012 22:0.016000001 23:0.0098000001 24:0.093999997 25:0.011 26:0.07 27:0.0092000002 28:0.16 29:0.011 30:0.18000001 31:0.012 32:0.16 33:0.016000001 34:0.016000001 35:0.030999999 36:0.16 37:0.027000001 38:0.15000001 39:0.015 40:0.15000001 41:0.017000001 42:0.15000001 43:0.0099999998 44:0.12 45:0.0099999998 46:0.016000001 47:0.0099999998 48:0.016000001 49:0.018999999 50:0.023 51:0.026000001 52:0.13 53:0.022 54:0.18000001 55:0.017000001 56:0.18000001 57:0.013 58:0.16 59:0.014 60:0.086000003 61:0.011 62:0.023 63:0.0099999998 64:0.016000001 65:0.022 66:0.023 67:0.028000001 68:0.097999997 69:0.026000001 70:0.13 71:0.016000001 72:0.17 73:0.015 74:0.14 75:0.014 76:0.059 77:0.014 78:0.07 79:0.014 80:0.027000001 81:0.027000001 82:0.13 83:0.037999999 84:0.15000001 85:0.037999999 86:0.14 87:0.021 88:0.20999999 89:0.023 90:0.13 91:0.02 92:0.050999999 93:0.02 94:0.074000001 95:0.021 96:0.059 97:0.022 98:0.050999999 99:0.030999999 100:0.066 101:0.030999999 102:0.07 103:0.022 104:0.18000001 105:0.023 106:0.18000001 107:0.027000001 108:0.050999999 109:0.026000001 110:0.039000001 111:0.024 112:0.027000001 113:0.026000001 114:0.027000001 115:0.027000001 116:0.030999999 117:0.028000001 118:0.023 119:0.028000001 120:0.027000001 121:0.027000001 122:0.027000001 123:0.028000001 124:0.030999999 125:0.028000001 126:0.030999999 127:0.027000001 128:0.023 
28.0448202400002 1:0.027000001 2:0.14 3:0.023 4:0.14 5:0.02 6:0.14 7:0.017999999 8:0.14 9:0.014 10:0.18000001 11:0.018999999 12:0.14 13:0.021 14:0.13 15:0.024 16:0.14 17:0.028999999 18:0.14 19:0.023 20:0.16 21:0.028999999 22:0.11 23:0.029999999 24:0.063000001 25:0.027000001 26:0.13 27:0.024 28:0.15000001 29:0.028000001 30:0.086000003 31:0.027000001 32:0.13 33:0.032000002 34:0.059 35:0.026000001 36:0.086000003 37:0.030999999 38:0.046999998 39:0.030999999 40:0.055 41:0.029999999 42:0.043000001 43:0.029999999 44:0.050999999 45:0.028000001 46:0.055 47:0.027000001 48:0.07 49:0.026000001 50:0.1 51:0.021 52:0.11 53:0.029999999 54:0.14 55:0.028000001 56:0.17 57:0.027000001 58:0.18000001 59:0.028999999 60:0.11 61:0.029999999 62:0.023 63:0.030999999 64:0.027000001 65:0.034000002 66:0.13 67:0.032000002 68:0.055 69:0.028999999 70:0.17 71:0.028999999 72:0.20999999 73:0.026000001 74:0.14 75:0.026000001 76:0.15000001 77:0.029999999 78:0.13 79:0.032000002 80:0.039000001 81:0.035 82:0.13 83:0.032000002 84:0.082000002 85:0.032000002 86:0.11 87:0.030999999 88:0.16 89:0.028000001 90:0.20999999 91:0.032000002 92:0.035 93:0.037 94:0.043000001 95:0.037 96:0.046999998 97:0.041999999 98:0.16 99:0.043000001 100:0.15000001 101:0.043000001 102:0.16 103:0.041000001 104:0.15000001 105:0.041000001 106:0.17 107:0.039999999 108:0.23 109:0.039000001 110:0.20999999 111:0.041000001 112:0.14 113:0.041999999 114:0.15000001 115:0.041999999 116:0.18000001 117:0.044 118:0.20999999 119:0.043000001 120:0.14 121:0.044 122:0.16 123:0.045000002 124:0.17 125:0.041999999 126:0.15000001 127:0.039999999 128:0.14 
27.67273862171986 1:0.02 2:0.1 3:0.02 4:0.11 5:0.017999999 6:0.12 7:0.016000001 8:0.11 9:0.015 10:0.11 11:0.02 12:0.12 13:0.018999999 14:0.13 15:0.016000001 16:0.093999997 17:0.018999999 18:0.11 19:0.02 20:0.12 21:0.021 22:0.13 23:0.02 24:0.12 25:0.018999999 26:0.12 27:0.02 28:0.15000001 29:0.013 30:0.093999997 31:0.014 32:0.097999997 33:0.021 34:0.13 35:0.021 36:0.13 37:0.02 38:0.14 39:0.017000001 40:0.14 41:0.017999999 42:0.16 43:0.015 44:0.13 45:0.021 46:0.11 47:0.016000001 48:0.086000003 49:0.018999999 50:0.11 51:0.022 52:0.13 53:0.017999999 54:0.11 55:0.013 56:0.14 57:0.013 58:0.15000001 59:0.02 60:0.11 61:0.018999999 62:0.12 63:0.017000001 64:0.14 65:0.017000001 66:0.059 67:0.017999999 68:0.090000004 69:0.015 70:0.1 71:0.015 72:0.050999999 73:0.016000001 74:0.059 75:0.017999999 76:0.14 77:0.023 78:0.11 79:0.02 80:0.13 81:0.022 82:0.097999997 83:0.023 84:0.13 85:0.025 86:0.12 87:0.025 88:0.13 89:0.018999999 90:0.097999997 91:0.024 92:0.12 93:0.023 94:0.11 95:0.02 96:0.11 97:0.021 98:0.097999997 99:0.024 100:0.11 101:0.026000001 102:0.11 103:0.026000001 104:0.13 105:0.022 106:0.13 107:0.017999999 108:0.12 109:0.02 110:0.097999997 111:0.017999999 112:0.11 113:0.017999999 114:0.074000001 115:0.017999999 116:0.086000003 117:0.017999999 118:0.11 119:0.021 120:0.090000004 121:0.02 122:0.093999997 123:0.017999999 124:0.090000004 125:0.017000001 126:0.090000004 127:0.018999999 128:0.090000004 
32.55638165617168 1:0.015 2:0.1 3:0.016000001 4:0.1 5:0.015 6:0.13 7:0.013 8:0.11 9:0.012 10:0.11 11:0.017999999 12:0.13 13:0.013 14:0.14 15:0.013 16:0.097999997 17:0.016000001 18:0.1 19:0.016000001 20:0.12 21:0.016000001 22:0.12 23:0.016000001 24:0.12 25:0.014 26:0.12 27:0.011 28:0.074000001 29:0.012 30:0.086000003 31:0.011 32:0.090000004 33:0.017999999 34:0.13 35:0.02 36:0.12 37:0.017000001 38:0.11 39:0.015 40:0.12 41:0.016000001 42:0.14 43:0.017999999 44:0.1 45:0.024 46:0.12 47:0.017000001 48:0.097999997 49:0.021 50:0.13 51:0.022 52:0.13 53:0.018999999 54:0.13 55:0.017000001 56:0.13 57:0.016000001 58:0.13 59:0.022 60:0.11 61:0.026000001 62:0.13 63:0.02 64:0.13 65:0.014 66:0.090000004 67:0.017999999 68:0.11 69:0.017000001 70:0.12 71:0.012 72:0.1 73:0.0099999998 74:0.039000001 75:0.021 76:0.12 77:0.025 78:0.12 79:0.017999999 80:0.15000001 81:0.016000001 82:0.1 83:0.016000001 84:0.11 85:0.016000001 86:0.1 87:0.012 88:0.11 89:0.011 90:0.1 91:0.024 92:0.12 93:0.023 94:0.12 95:0.022 96:0.13 97:0.017999999 98:0.11 99:0.021 100:0.12 101:0.017000001 102:0.11 103:0.017999999 104:0.11 105:0.015 106:0.12 107:0.024 108:0.14 109:0.017000001 110:0.063000001 111:0.023 112:0.13 113:0.017999999 114:0.093999997 115:0.021 116:0.11 117:0.017999999 118:0.12 119:0.017999999 120:0.12 121:0.015 122:0.11 123:0.014 124:0.074000001 125:0.013 126:0.086000003 127:0.014 128:0.090000004 
16.41853177040816 1:0.016000001 2:0.097999997 3:0.016000001 4:0.11 5:0.016000001 6:0.11 7:0.013 8:0.13 9:0.011 10:0.086000003 11:0.016000001 12:0.12 13:0.013 14:0.12 15:0.012 16:0.082000002 17:0.018999999 18:0.12 19:0.017000001 20:0.11 21:0.015 22:0.13 23:0.013 24:0.13 25:0.012 26:0.1 27:0.013 28:0.090000004 29:0.011 30:0.063000001 31:0.0099999998 32:0.066 33:0.017000001 34:0.13 35:0.017999999 36:0.13 37:0.015 38:0.15000001 39:0.016000001 40:0.2 41:0.015 42:0.16 43:0.012 44:0.074000001 45:0.017000001 46:0.078000002 47:0.011 48:0.066 49:0.02 50:0.13 51:0.018999999 52:0.13 53:0.017000001 54:0.13 55:0.016000001 56:0.14 57:0.013 58:0.11 59:0.014 60:0.097999997 61:0.018999999 62:0.093999997 63:0.015 64:0.097999997 65:0.016000001 66:0.11 67:0.016000001 68:0.12 69:0.014 70:0.090000004 71:0.012 72:0.078000002 73:0.0099999998 74:0.046999998 75:0.015 76:0.086000003 77:0.018999999 78:0.078000002 79:0.016000001 80:0.097999997 81:0.017000001 82:0.093999997 83:0.016000001 84:0.12 85:0.014 86:0.16 87:0.012 88:0.20999999 89:0.012 90:0.11 91:0.017000001 92:0.097999997 93:0.021 94:0.086000003 95:0.017999999 96:0.11 97:0.017999999 98:0.12 99:0.017000001 100:0.13 101:0.012 102:0.16 103:0.013 104:0.13 105:0.014 106:0.11 107:0.018999999 108:0.078000002 109:0.016000001 110:0.097999997 111:0.022 112:0.1 113:0.017000001 114:0.11 115:0.015 116:0.13 117:0.012 118:0.14 119:0.012 120:0.12 121:0.014 122:0.13 123:0.015 124:0.093999997 125:0.015 126:0.078000002 127:0.016000001 128:0.093999997 
60 1:0.0091000004 2:0.093999997 3:0.0071 4:0.090000004 5:0.0024999999 6:0.074000001 7:0.0022 8:0.07 9:0.0024999999 10:0.066 11:0.0017 12:0.07 13:0.0022 14:0.063000001 15:0.0043000001 16:0.043000001 17:0.0094999997 18:0.066 19:0.0091000004 20:0.097999997 21:0.0055999998 22:0.090000004 23:0.0054000001 24:0.090000004 25:0.0063 26:0.063000001 27:0.0057999999 28:0.078000002 29:0.0068999999 30:0.027000001 31:0.0091000004 32:0.046999998 33:0.011 34:0.059 35:0.012 36:0.082000002 37:0.0088999998 38:0.063000001 39:0.0049999999 40:0.043000001 41:0.0073000002 42:0.035 43:0.0081000002 44:0.046999998 45:0.0099999998 46:0.097999997 47:0.0088999998 48:0.07 49:0.015 50:0.07 51:0.0099999998 52:0.039000001 53:0.011 54:0.090000004 55:0.011 56:0.093999997 57:0.0074999998 58:0.066 59:0.0073000002 60:0.086000003 61:0.011 62:0.086000003 63:0.012 64:0.050999999 65:0.011 66:0.055 67:0.013 68:0.082000002 69:0.0096000005 70:0.074000001 71:0.0088999998 72:0.043000001 73:0.0086000003 74:0.023 75:0.0099999998 76:0.046999998 77:0.017999999 78:0.023 79:0.011 80:0.027000001 81:0.012 82:0.030999999 83:0.02 84:0.023 85:0.013 86:0.066 87:0.014 88:0.090000004 89:0.012 90:0.078000002 91:0.011 92:0.093999997 93:0.013 94:0.093999997 95:0.014 96:0.097999997 97:0.014 98:0.097999997 99:0.015 100:0.097999997 101:0.015 102:0.082000002 103:0.012 104:0.066 105:0.012 106:0.059 107:0.013 108:0.07 109:0.017000001 110:0.11 111:0.018999999 112:0.11 113:0.015 114:0.046999998 115:0.014 116:0.039000001 117:0.011 118:0.023 119:0.014 120:0.016000001 121:0.014 122:0.02 123:0.012 124:0.02 125:0.02 126:0.016000001 127:0.021 128:0.046999998 
34.16589181015685 1:0.017000001 2:0.097999997 3:0.015 4:0.12 5:0.011 6:0.13 7:0.0099999998 8:0.11 9:0.011 10:0.12 11:0.011 12:0.14 13:0.011 14:0.12 15:0.011 16:0.12 17:0.017999999 18:0.039000001 19:0.017999999 20:0.082000002 21:0.014 22:0.07 23:0.012 24:0.11 25:0.011 26:0.11 27:0.0099999998 28:0.1 29:0.0099999998 30:0.027000001 31:0.0097000003 32:0.035 33:0.021 34:0.074000001 35:0.021 36:0.1 37:0.011 38:0.078000002 39:0.0092000002 40:0.023 41:0.0092000002 42:0.027000001 43:0.012 44:0.027000001 45:0.014 46:0.046999998 47:0.011 48:0.043000001 49:0.028000001 50:0.090000004 51:0.023 52:0.046999998 53:0.015 54:0.13 55:0.017999999 56:0.14 57:0.012 58:0.16 59:0.022 60:0.090000004 61:0.023 62:0.13 63:0.013 64:0.039000001 65:0.023 66:0.07 67:0.02 68:0.11 69:0.011 70:0.11 71:0.012 72:0.11 73:0.013 74:0.13 75:0.023 76:0.11 77:0.021 78:0.11 79:0.015 80:0.043000001 81:0.017999999 82:0.039000001 83:0.013 84:0.030999999 85:0.018999999 86:0.13 87:0.024 88:0.13 89:0.017999999 90:0.14 91:0.028000001 92:0.11 93:0.021 94:0.11 95:0.021 96:0.11 97:0.026000001 98:0.13 99:0.024 100:0.12 101:0.018999999 102:0.12 103:0.021 104:0.14 105:0.021 106:0.023 107:0.028000001 108:0.11 109:0.024 110:0.086000003 111:0.029999999 112:0.093999997 113:0.021 114:0.043000001 115:0.016000001 116:0.035 117:0.013 118:0.023 119:0.017000001 120:0.030999999 121:0.021 122:0.030999999 123:0.027000001 124:0.027000001 125:0.029999999 126:0.035 127:0.029999999 128:0.035 
0.5557382220157754 1:0.011 2:0.14 3:0.0098999999 4:0.13 5:0.0085000005 6:0.16 7:0.0089999996 8:0.17 9:0.0088999998 10:0.14 11:0.0082 12:0.17 13:0.0077999998 14:0.13 15:0.0080000004 16:0.12 17:0.011 18:0.063000001 19:0.013 20:0.082000002 21:0.0086000003 22:0.16 23:0.0077 24:0.16 25:0.0082 26:0.2 27:0.0082999999 28:0.11 29:0.014 30:0.18000001 31:0.0085000005 32:0.074000001 33:0.013 34:0.078000002 35:0.012 36:0.16 37:0.011 38:0.22 39:0.011 40:0.20999999 41:0.011 42:0.2 43:0.011 44:0.082000002 45:0.014 46:0.22 47:0.011 48:0.17 49:0.013 50:0.086000003 51:0.0097000003 52:0.13 53:0.012 54:0.25 55:0.013 56:0.23999999 57:0.015 58:0.23 59:0.015 60:0.17 61:0.011 62:0.15000001 63:0.012 64:0.086000003 65:0.014 66:0.12 67:0.017999999 68:0.12 69:0.012 70:0.25 71:0.014 72:0.22 73:0.012 74:0.23 75:0.011 76:0.11 77:0.0088 78:0.15000001 79:0.016000001 80:0.097999997 81:0.017000001 82:0.093999997 83:0.023 84:0.14 85:0.014 86:0.20999999 87:0.011 88:0.23 89:0.011 90:0.23 91:0.014 92:0.18000001 93:0.013 94:0.11 95:0.012 96:0.035 97:0.02 98:0.11 99:0.022 100:0.13 101:0.022 102:0.14 103:0.017000001 104:0.22 105:0.017000001 106:0.090000004 107:0.017999999 108:0.11 109:0.017999999 110:0.17 111:0.025 112:0.18000001 113:0.02 114:0.12 115:0.022 116:0.13 117:0.022 118:0.16 119:0.017999999 120:0.20999999 121:0.017999999 122:0.19 123:0.024 124:0.11 125:0.015 126:0.14 127:0.026000001 128:0.043000001 
24.8555177796776 1:0.014 2:0.13 3:0.014 4:0.15000001 5:0.015 6:0.13 7:0.015 8:0.11 9:0.015 10:0.11 11:0.015 12:0.13 13:0.011 14:0.13 15:0.0096000005 16:0.097999997 17:0.013 18:0.063000001 19:0.017000001 20:0.055 21:0.015 22:0.11 23:0.016000001 24:0.11 25:0.015 26:0.078000002 27:0.016000001 28:0.059 29:0.015 30:0.18000001 31:0.011 32:0.050999999 33:0.012 34:0.063000001 35:0.014 36:0.18000001 37:0.015 38:0.20999999 39:0.015 40:0.2 41:0.013 42:0.2 43:0.013 44:0.17 45:0.012 46:0.18000001 47:0.012 48:0.11 49:0.017999999 50:0.055 51:0.023 52:0.11 53:0.017999999 54:0.2 55:0.012 56:0.22 57:0.018999999 58:0.2 59:0.012 60:0.16 61:0.013 62:0.035 63:0.011 64:0.023 65:0.024 66:0.050999999 67:0.02 68:0.07 69:0.015 70:0.19 71:0.016000001 72:0.19 73:0.017000001 74:0.2 75:0.012 76:0.18000001 77:0.021 78:0.12 79:0.014 80:0.043000001 81:0.025 82:0.059 83:0.027000001 84:0.11 85:0.016000001 86:0.18000001 87:0.017000001 88:0.18000001 89:0.014 90:0.2 91:0.017000001 92:0.2 93:0.025 94:0.039000001 95:0.017000001 96:0.055 97:0.028000001 98:0.090000004 99:0.022 100:0.097999997 101:0.026000001 102:0.13 103:0.025 104:0.11 105:0.021 106:0.086000003 107:0.018999999 108:0.030999999 109:0.022 110:0.11 111:0.017000001 112:0.039000001 113:0.026000001 114:0.097999997 115:0.025 116:0.090000004 117:0.023 118:0.11 119:0.02 120:0.14 121:0.021 122:0.13 123:0.021 124:0.086000003 125:0.024 126:0.078000002 127:0.022 128:0.027000001 
17.20674356200061 1:0.017000001 2:0.11 3:0.021 4:0.097999997 5:0.021 6:0.11 7:0.017999999 8:0.13 9:0.017000001 10:0.18000001 11:0.021 12:0.14 13:0.018999999 14:0.12 15:0.017999999 16:0.11 17:0.02 18:0.055 19:0.022 20:0.082000002 21:0.021 22:0.13 23:0.02 24:0.15000001 25:0.02 26:0.16 27:0.022 28:0.12 29:0.02 30:0.15000001 31:0.017000001 32:0.074000001 33:0.018999999 34:0.043000001 35:0.022 36:0.15000001 37:0.018999999 38:0.14 39:0.017999999 40:0.14 41:0.02 42:0.13 43:0.017999999 44:0.082000002 45:0.017000001 46:0.16 47:0.017000001 48:0.082000002 49:0.02 50:0.02 51:0.024 52:0.11 53:0.022 54:0.14 55:0.016000001 56:0.14 57:0.017000001 58:0.15000001 59:0.017999999 60:0.11 61:0.023 62:0.074000001 63:0.017999999 64:0.02 65:0.025 66:0.02 67:0.027000001 68:0.086000003 69:0.021 70:0.15000001 71:0.015 72:0.14 73:0.015 74:0.17 75:0.021 76:0.12 77:0.022 78:0.13 79:0.021 80:0.023 81:0.023 82:0.07 83:0.028999999 84:0.07 85:0.023 86:0.12 87:0.02 88:0.16 89:0.02 90:0.13 91:0.021 92:0.12 93:0.023 94:0.12 95:0.022 96:0.023 97:0.028000001 98:0.11 99:0.028999999 100:0.13 101:0.028000001 102:0.13 103:0.024 104:0.12 105:0.021 106:0.055 107:0.022 108:0.13 109:0.022 110:0.097999997 111:0.023 112:0.023 113:0.027000001 114:0.093999997 115:0.027000001 116:0.12 117:0.026000001 118:0.13 119:0.026000001 120:0.082000002 121:0.025 122:0.12 123:0.026000001 124:0.043000001 125:0.026000001 126:0.030999999 127:0.026000001 128:0.023 
0.6351650270648711 1:0.015 2:0.16 3:0.0099999998 4:0.12 5:0.0094999997 6:0.043000001 7:0.0068000001 8:0.043000001 9:0.0083999997 10:0.035 11:0.0088999998 12:0.039000001 13:0.0085000005 14:0.035 15:0.0086000003 16:0.039000001 17:0.02 18:0.16 19:0.013 20:0.18000001 21:0.0099999998 22:0.15000001 23:0.0080000004 24:0.027000001 25:0.0089999996 26:0.027000001 27:0.013 28:0.13 29:0.016000001 30:0.11 31:0.0091000004 32:0.02 33:0.016000001 34:0.19 35:0.013 36:0.15000001 37:0.0098999999 38:0.15000001 39:0.0091000004 40:0.1 41:0.0098000001 42:0.039000001 43:0.016000001 44:0.13 45:0.018999999 46:0.16 47:0.0098999999 48:0.02 49:0.015 50:0.13 51:0.014 52:0.15000001 53:0.012 54:0.17 55:0.0099999998 56:0.16 57:0.011 58:0.13 59:0.013 60:0.12 61:0.015 62:0.14 63:0.011 64:0.066 65:0.012 66:0.035 67:0.012 68:0.13 69:0.011 70:0.11 71:0.0099999998 72:0.043000001 73:0.0098999999 74:0.027000001 75:0.014 76:0.12 77:0.015 78:0.1 79:0.013 80:0.11 81:0.02 82:0.16 83:0.016000001 84:0.17 85:0.013 86:0.16 87:0.011 88:0.18000001 89:0.011 90:0.17 91:0.015 92:0.11 93:0.015 94:0.13 95:0.015 96:0.13 97:0.023 98:0.14 99:0.017999999 100:0.16 101:0.016000001 102:0.18000001 103:0.013 104:0.14 105:0.011 106:0.15000001 107:0.0096000005 108:0.15000001 109:0.012 110:0.11 111:0.017000001 112:0.14 113:0.017999999 114:0.1 115:0.017000001 116:0.11 117:0.014 118:0.090000004 119:0.011 120:0.1 121:0.0099999998 122:0.11 123:0.011 124:0.11 125:0.013 126:0.11 127:0.015 128:0.14 
48.86379073231026 1:0.015 2:0.097999997 3:0.012 4:0.13 5:0.0093999999 6:0.097999997 7:0.011 8:0.15000001 9:0.0094999997 10:0.11 11:0.0094999997 12:0.12 13:0.0094999997 14:0.090000004 15:0.0098999999 16:0.1 17:0.018999999 18:0.14 19:0.018999999 20:0.15000001 21:0.0099999998 22:0.016000001 23:0.0097000003 24:0.016000001 25:0.0096000005 26:0.012 27:0.013 28:0.13 29:0.017000001 30:0.090000004 31:0.011 32:0.016000001 33:0.018999999 34:0.15000001 35:0.021 36:0.18000001 37:0.017999999 38:0.2 39:0.012 40:0.13 41:0.0099999998 42:0.012 43:0.017999999 44:0.16 45:0.02 46:0.18000001 47:0.012 48:0.063000001 49:0.023 50:0.15000001 51:0.025 52:0.18000001 53:0.021 54:0.16 55:0.017999999 56:0.17 57:0.016000001 58:0.23 59:0.015 60:0.17 61:0.022 62:0.15000001 63:0.016000001 64:0.13 65:0.023 66:0.027000001 67:0.026000001 68:0.14 69:0.023 70:0.15000001 71:0.024 72:0.046999998 73:0.026000001 74:0.046999998 75:0.015 76:0.16 77:0.016000001 78:0.15000001 79:0.018999999 80:0.090000004 81:0.028000001 82:0.15000001 83:0.027000001 84:0.18000001 85:0.023 86:0.15000001 87:0.023 88:0.18000001 89:0.023 90:0.22 91:0.017999999 92:0.17 93:0.021 94:0.15000001 95:0.02 96:0.14 97:0.028999999 98:0.16 99:0.027000001 100:0.17 101:0.023 102:0.19 103:0.025 104:0.2 105:0.022 106:0.19 107:0.022 108:0.22 109:0.02 110:0.11 111:0.022 112:0.1 113:0.027000001 114:0.086000003 115:0.028000001 116:0.082000002 117:0.028000001 118:0.12 119:0.027000001 120:0.11 121:0.026000001 122:0.090000004 123:0.025 124:0.11 125:0.024 126:0.023 127:0.022 128:0.030999999 
37.16085686714588 1:0.012 2:0.082000002 3:0.012 4:0.078000002 5:0.012 6:0.090000004 7:0.012 8:0.11 9:0.011 10:0.11 11:0.012 12:0.11 13:0.011 14:0.078000002 15:0.0068000001 16:0.093999997 17:0.017000001 18:0.11 19:0.015 20:0.14 21:0.015 22:0.18000001 23:0.015 24:0.2 25:0.013 26:0.2 27:0.015 28:0.16 29:0.018999999 30:0.14 31:0.011 32:0.13 33:0.018999999 34:0.093999997 35:0.014 36:0.11 37:0.015 38:0.20999999 39:0.014 40:0.23999999 41:0.013 42:0.20999999 43:0.015 44:0.17 45:0.014 46:0.13 47:0.014 48:0.14 49:0.021 50:0.07 51:0.018999999 52:0.066 53:0.016000001 54:0.059 55:0.014 56:0.07 57:0.015 58:0.090000004 59:0.012 60:0.16 61:0.013 62:0.086000003 63:0.016000001 64:0.17 65:0.023 66:0.13 67:0.022 68:0.18000001 69:0.016000001 70:0.13 71:0.014 72:0.2 73:0.013 74:0.19 75:0.011 76:0.16 77:0.015 78:0.11 79:0.015 80:0.14 81:0.022 82:0.13 83:0.021 84:0.17 85:0.017999999 86:0.17 87:0.017000001 88:0.14 89:0.015 90:0.14 91:0.015 92:0.12 93:0.016000001 94:0.1 95:0.016000001 96:0.13 97:0.018999999 98:0.14 99:0.017999999 100:0.14 101:0.018999999 102:0.15000001 103:0.017999999 104:0.15000001 105:0.017999999 106:0.16 107:0.017999999 108:0.12 109:0.017000001 110:0.074000001 111:0.017999999 112:0.059 113:0.018999999 114:0.097999997 115:0.02 116:0.093999997 117:0.015 118:0.082000002 119:0.016000001 120:0.066 121:0.015 122:0.066 123:0.014 124:0.07 125:0.013 126:0.063000001 127:0.015 128:0.078000002 
14.31817877300745 1:0.11 2:0.039000001 3:0.12 4:0.046999998 5:0.12 6:0.043000001 7:0.13 8:0.059 9:0.13 10:0.050999999 11:0.12 12:0.046999998 13:0.12 14:0.055 15:0.11 16:0.023 17:0.12 18:0.055 19:0.13 20:0.059 21:0.13 22:0.07 23:0.13 24:0.078000002 25:0.14 26:0.078000002 27:0.13 28:0.059 29:0.12 30:0.046999998 31:0.12 32:0.023 33:0.12 34:0.074000001 35:0.13 36:0.063000001 37:0.13 38:0.074000001 39:0.12 40:0.039000001 41:0.13 42:0.063000001 43:0.13 44:0.043000001 45:0.12 46:0.046999998 47:0.11 48:0.030999999 49:0.1 50:0.059 51:0.12 52:0.046999998 53:0.13 54:0.043000001 55:0.12 56:0.043000001 57:0.13 58:0.050999999 59:0.12 60:0.059 61:0.12 62:0.039000001 63:0.11 64:0.039000001 65:0.1 66:0.046999998 67:0.12 68:0.046999998 69:0.13 70:0.046999998 71:0.13 72:0.039000001 73:0.13 74:0.030999999 75:0.12 76:0.07 77:0.11 78:0.035 79:0.11 80:0.039000001 81:0.11 82:0.1 83:0.12 84:0.086000003 85:0.12 86:0.074000001 87:0.13 88:0.043000001 89:0.12 90:0.046999998 91:0.12 92:0.046999998 93:0.13 94:0.043000001 95:0.11 96:0.043000001 97:0.12 98:0.086000003 99:0.12 100:0.090000004 101:0.12 102:0.059 103:0.13 104:0.027000001 105:0.13 106:0.030999999 107:0.12 108:0.093999997 109:0.12 110:0.12 111:0.11 112:0.07 113:0.12 114:0.086000003 115:0.12 116:0.097999997 117:0.12 118:0.097999997 119:0.12 120:0.090000004 121:0.12 122:0.090000004 123:0.11 124:0.086000003 125:0.11 126:0.14 127:0.11 128:0.11 
60 1:0.035 2:0.016000001 3:0.034000002 4:0.016000001 5:0.039000001 6:0.039000001 7:0.045000002 8:0.035 9:0.046999998 10:0.039000001 11:0.045000002 12:0.035 13:0.035999998 14:0.023 15:0.035 16:0.02 17:0.043000001 18:0.13 19:0.045000002 20:0.13 21:0.044 22:0.02 23:0.046999998 24:0.027000001 25:0.052000001 26:0.030999999 27:0.050999999 28:0.030999999 29:0.035 30:0.02 31:0.035 32:0.027000001 33:0.039999999 34:0.15000001 35:0.052999999 36:0.14 37:0.050000001 38:0.11 39:0.045000002 40:0.059 41:0.048 42:0.046999998 43:0.050000001 44:0.027000001 45:0.041000001 46:0.059 47:0.035999998 48:0.023 49:0.050999999 50:0.14 51:0.075999998 52:0.046999998 53:0.050000001 54:0.063000001 55:0.050000001 56:0.055 57:0.054000001 58:0.055 59:0.052000001 60:0.07 61:0.07 62:0.093999997 63:0.037 64:0.11 65:0.033 66:0.11 67:0.052000001 68:0.055 69:0.048 70:0.097999997 71:0.059 72:0.074000001 73:0.048999999 74:0.07 75:0.052999999 76:0.11 77:0.061000001 78:0.11 79:0.033 80:0.12 81:0.032000002 82:0.043000001 83:0.041000001 84:0.059 85:0.045000002 86:0.078000002 87:0.048999999 88:0.082000002 89:0.046 90:0.066 91:0.050000001 92:0.082000002 93:0.061999999 94:0.14 95:0.033 96:0.046999998 97:0.033 98:0.046999998 99:0.035999998 100:0.050999999 101:0.039999999 102:0.097999997 103:0.048 104:0.093999997 105:0.041999999 106:0.059 107:0.046 108:0.066 109:0.044 110:0.12 111:0.035 112:0.11 113:0.035 114:0.07 115:0.033 116:0.078000002 117:0.037999999 118:0.11 119:0.044 120:0.12 121:0.041000001 122:0.097999997 123:0.046 124:0.14 125:0.041999999 126:0.15000001 127:0.039000001 128:0.18000001 
14.330176187424 1:0.12 2:0.078000002 3:0.12 4:0.055 5:0.12 6:0.012 7:0.12 8:0.063000001 9:0.12 10:0.066 11:0.12 12:0.090000004 13:0.12 14:0.074000001 15:0.12 16:0.059 17:0.11 18:0.02 19:0.11 20:0.016000001 21:0.12 22:0.016000001 23:0.13 24:0.063000001 25:0.13 26:0.07 27:0.14 28:0.082000002 29:0.13 30:0.13 31:0.12 32:0.15000001 33:0.12 34:0.043000001 35:0.12 36:0.055 37:0.12 38:0.050999999 39:0.13 40:0.059 41:0.13 42:0.07 43:0.14 44:0.063000001 45:0.13 46:0.082000002 47:0.11 48:0.016000001 49:0.11 50:0.046999998 51:0.11 52:0.050999999 53:0.11 54:0.066 55:0.14 56:0.059 57:0.14 58:0.066 59:0.14 60:0.055 61:0.14 62:0.059 63:0.11 64:0.066 65:0.12 66:0.046999998 67:0.12 68:0.043000001 69:0.1 70:0.066 71:0.13 72:0.059 73:0.14 74:0.063000001 75:0.13 76:0.066 77:0.14 78:0.050999999 79:0.11 80:0.082000002 81:0.11 82:0.046999998 83:0.12 84:0.050999999 85:0.1 86:0.07 87:0.13 88:0.059 89:0.14 90:0.055 91:0.13 92:0.046999998 93:0.13 94:0.11 95:0.11 96:0.16 97:0.1 98:0.046999998 99:0.11 100:0.046999998 101:0.11 102:0.055 103:0.12 104:0.050999999 105:0.13 106:0.050999999 107:0.12 108:0.059 109:0.14 110:0.11 111:0.11 112:0.039000001 113:0.1 114:0.086000003 115:0.11 116:0.066 117:0.11 118:0.055 119:0.11 120:0.050999999 121:0.11 122:0.055 123:0.11 124:0.066 125:0.11 126:0.074000001 127:0.1 128:0.046999998 
45.42675381199815 1:0.12 2:0.074000001 3:0.12 4:0.074000001 5:0.12 6:0.016000001 7:0.12 8:0.055 9:0.12 10:0.063000001 11:0.12 12:0.050999999 13:0.12 14:0.046999998 15:0.12 16:0.043000001 17:0.12 18:0.016000001 19:0.12 20:0.016000001 21:0.12 22:0.016000001 23:0.13 24:0.055 25:0.13 26:0.066 27:0.14 28:0.07 29:0.14 30:0.11 31:0.13 32:0.15000001 33:0.14 34:0.043000001 35:0.14 36:0.046999998 37:0.13 38:0.050999999 39:0.13 40:0.063000001 41:0.13 42:0.050999999 43:0.14 44:0.046999998 45:0.13 46:0.016000001 47:0.12 48:0.016000001 49:0.13 50:0.043000001 51:0.13 52:0.046999998 53:0.12 54:0.063000001 55:0.14 56:0.055 57:0.15000001 58:0.059 59:0.15000001 60:0.055 61:0.14 62:0.097999997 63:0.13 64:0.07 65:0.12 66:0.046999998 67:0.12 68:0.046999998 69:0.11 70:0.07 71:0.13 72:0.074000001 73:0.14 74:0.074000001 75:0.14 76:0.066 77:0.14 78:0.082000002 79:0.13 80:0.078000002 81:0.11 82:0.046999998 83:0.12 84:0.046999998 85:0.11 86:0.066 87:0.13 88:0.059 89:0.14 90:0.066 91:0.14 92:0.055 93:0.13 94:0.093999997 95:0.12 96:0.13 97:0.11 98:0.07 99:0.12 100:0.046999998 101:0.11 102:0.055 103:0.12 104:0.030999999 105:0.13 106:0.050999999 107:0.13 108:0.055 109:0.13 110:0.078000002 111:0.13 112:0.059 113:0.11 114:0.07 115:0.12 116:0.050999999 117:0.11 118:0.055 119:0.11 120:0.050999999 121:0.12 122:0.066 123:0.12 124:0.078000002 125:0.12 126:0.086000003 127:0.12 128:0.082000002 
1.994899440067768 1:0.12 2:0.078000002 3:0.13 4:0.078000002 5:0.13 6:0.016000001 7:0.13 8:0.046999998 9:0.13 10:0.055 11:0.13 12:0.055 13:0.13 14:0.059 15:0.13 16:0.059 17:0.12 18:0.086000003 19:0.13 20:0.059 21:0.14 22:0.016000001 23:0.13 24:0.059 25:0.14 26:0.055 27:0.14 28:0.074000001 29:0.14 30:0.13 31:0.13 32:0.16 33:0.12 34:0.043000001 35:0.12 36:0.066 37:0.12 38:0.066 39:0.15000001 40:0.055 41:0.14 42:0.063000001 43:0.15000001 44:0.063000001 45:0.15000001 46:0.063000001 47:0.13 48:0.016000001 49:0.11 50:0.050999999 51:0.097999997 52:0.063000001 53:0.11 54:0.059 55:0.15000001 56:0.082000002 57:0.14 58:0.086000003 59:0.14 60:0.090000004 61:0.14 62:0.090000004 63:0.13 64:0.055 65:0.11 66:0.059 67:0.13 68:0.063000001 69:0.13 70:0.086000003 71:0.15000001 72:0.07 73:0.14 74:0.082000002 75:0.14 76:0.086000003 77:0.13 78:0.066 79:0.11 80:0.063000001 81:0.12 82:0.039000001 83:0.14 84:0.055 85:0.14 86:0.035 87:0.14 88:0.066 89:0.14 90:0.093999997 91:0.14 92:0.063000001 93:0.14 94:0.1 95:0.12 96:0.1 97:0.12 98:0.023 99:0.13 100:0.055 101:0.14 102:0.016000001 103:0.14 104:0.023 105:0.14 106:0.059 107:0.14 108:0.059 109:0.14 110:0.074000001 111:0.13 112:0.090000004 113:0.12 114:0.055 115:0.12 116:0.063000001 117:0.12 118:0.086000003 119:0.13 120:0.086000003 121:0.13 122:0.093999997 123:0.12 124:0.11 125:0.12 126:0.13 127:0.11 128:0.11 
60 1:0.1 2:0.090000004 3:0.1 4:0.1 5:0.096000001 6:0.13 7:0.097000003 8:0.14 9:0.094999999 10:0.13 11:0.097000003 12:0.18000001 13:0.098999999 14:0.12 15:0.093999997 16:0.074000001 17:0.089000002 18:0.039000001 19:0.097999997 20:0.039000001 21:0.1 22:0.023 23:0.11 24:0.063000001 25:0.11 26:0.063000001 27:0.11 28:0.12 29:0.11 30:0.16 31:0.097999997 32:0.18000001 33:0.096000001 34:0.050999999 35:0.096000001 36:0.050999999 37:0.11 38:0.050999999 39:0.11 40:0.059 41:0.11 42:0.063000001 43:0.12 44:0.066 45:0.11 46:0.11 47:0.1 48:0.035 49:0.092 50:0.055 51:0.092 52:0.059 53:0.1 54:0.063000001 55:0.12 56:0.059 57:0.12 58:0.059 59:0.12 60:0.063000001 61:0.11 62:0.12 63:0.1 64:0.1 65:0.097999997 66:0.055 67:0.11 68:0.046999998 69:0.11 70:0.059 71:0.11 72:0.059 73:0.11 74:0.063000001 75:0.11 76:0.059 77:0.11 78:0.059 79:0.092 80:0.059 81:0.097999997 82:0.050999999 83:0.1 84:0.035 85:0.11 86:0.050999999 87:0.11 88:0.063000001 89:0.11 90:0.066 91:0.11 92:0.063000001 93:0.1 94:0.11 95:0.092 96:0.13 97:0.092 98:0.066 99:0.097000003 100:0.030999999 101:0.093999997 102:0.063000001 103:0.1 104:0.055 105:0.11 106:0.063000001 107:0.1 108:0.055 109:0.11 110:0.078000002 111:0.097000003 112:0.093999997 113:0.075000003 114:0.063000001 115:0.078000002 116:0.027000001 117:0.079000004 118:0.043000001 119:0.089000002 120:0.063000001 121:0.092 122:0.063000001 123:0.093000002 124:0.063000001 125:0.090999998 126:0.086000003 127:0.083999999 128:0.093999997 
26.56677097625892 1:0.098999999 2:0.086000003 3:0.1 4:0.1 5:0.093000002 6:0.13 7:0.096000001 8:0.14 9:0.094999999 10:0.16 11:0.097000003 12:0.14 13:0.1 14:0.090000004 15:0.096000001 16:0.086000003 17:0.093000002 18:0.016000001 19:0.1 20:0.016000001 21:0.11 22:0.016000001 23:0.1 24:0.07 25:0.1 26:0.07 27:0.11 28:0.15000001 29:0.11 30:0.17 31:0.096000001 32:0.18000001 33:0.097999997 34:0.050999999 35:0.097999997 36:0.059 37:0.11 38:0.050999999 39:0.11 40:0.059 41:0.11 42:0.066 43:0.12 44:0.066 45:0.11 46:0.086000003 47:0.098999999 48:0.046999998 49:0.093000002 50:0.055 51:0.090000004 52:0.059 53:0.1 54:0.066 55:0.12 56:0.055 57:0.11 58:0.063000001 59:0.12 60:0.066 61:0.11 62:0.16 63:0.1 64:0.097999997 65:0.097999997 66:0.063000001 67:0.11 68:0.046999998 69:0.11 70:0.066 71:0.12 72:0.030999999 73:0.11 74:0.059 75:0.11 76:0.023 77:0.11 78:0.07 79:0.092 80:0.059 81:0.1 82:0.043000001 83:0.11 84:0.030999999 85:0.11 86:0.043000001 87:0.11 88:0.066 89:0.11 90:0.063000001 91:0.11 92:0.063000001 93:0.11 94:0.07 95:0.092 96:0.14 97:0.094999999 98:0.055 99:0.096000001 100:0.027000001 101:0.093999997 102:0.055 103:0.1 104:0.050999999 105:0.11 106:0.059 107:0.093000002 108:0.016000001 109:0.1 110:0.07 111:0.094999999 112:0.090000004 113:0.078000002 114:0.050999999 115:0.083999999 116:0.023 117:0.082000002 118:0.043000001 119:0.094999999 120:0.059 121:0.096000001 122:0.063000001 123:0.098999999 124:0.063000001 125:0.097999997 126:0.074000001 127:0.086999997 128:0.097999997 
60 1:0.056000002 2:0.11 3:0.057999998 4:0.086000003 5:0.057 6:0.043000001 7:0.059999999 8:0.050999999 9:0.057999998 10:0.063000001 11:0.057999998 12:0.059 13:0.057 14:0.055 15:0.052000001 16:0.066 17:0.048999999 18:0.07 19:0.052000001 20:0.063000001 21:0.054000001 22:0.027000001 23:0.063000001 24:0.078000002 25:0.064999998 26:0.074000001 27:0.068999998 28:0.074000001 29:0.068999998 30:0.13 31:0.059999999 32:0.18000001 33:0.048999999 34:0.027000001 35:0.059999999 36:0.055 37:0.057999998 38:0.063000001 39:0.056000002 40:0.074000001 41:0.057999998 42:0.078000002 43:0.068999998 44:0.07 45:0.059999999 46:0.078000002 47:0.055 48:0.11 49:0.048 50:0.030999999 51:0.068000004 52:0.055 53:0.061000001 54:0.063000001 55:0.061999999 56:0.1 57:0.068999998 58:0.13 59:0.07 60:0.082000002 61:0.063000001 62:0.13 63:0.048 64:0.035 65:0.043000001 66:0.043000001 67:0.057999998 68:0.07 69:0.052000001 70:0.059 71:0.059999999 72:0.078000002 73:0.061000001 74:0.093999997 75:0.059 76:0.063000001 77:0.057 78:0.066 79:0.054000001 80:0.082000002 81:0.041000001 82:0.046999998 83:0.054000001 84:0.074000001 85:0.048 86:0.039000001 87:0.057 88:0.090000004 89:0.061999999 90:0.086000003 91:0.063000001 92:0.12 93:0.054000001 94:0.13 95:0.057999998 96:0.14 97:0.061999999 98:0.093999997 99:0.064999998 100:0.093999997 101:0.064000003 102:0.082000002 103:0.046999998 104:0.055 105:0.050999999 106:0.086000003 107:0.046999998 108:0.093999997 109:0.050000001 110:0.14 111:0.059999999 112:0.14 113:0.052000001 114:0.097999997 115:0.055 116:0.14 117:0.050000001 118:0.14 119:0.057 120:0.12 121:0.056000002 122:0.14 123:0.064000003 124:0.17 125:0.064000003 126:0.18000001 127:0.056000002 128:0.13 
48.93672982686177 1:0.052000001 2:0.023 3:0.057 4:0.07 5:0.057 6:0.074000001 7:0.061000001 8:0.043000001 9:0.067000002 10:0.030999999 11:0.072999999 12:0.039000001 13:0.068999998 14:0.066 15:0.064000003 16:0.039000001 17:0.054000001 18:0.02 19:0.061999999 20:0.090000004 21:0.067000002 22:0.082000002 23:0.071000002 24:0.055 25:0.064999998 26:0.035 27:0.075000003 28:0.078000002 29:0.056000002 30:0.066 31:0.068999998 32:0.050999999 33:0.054000001 34:0.02 35:0.061000001 36:0.12 37:0.066 38:0.090000004 39:0.068999998 40:0.059 41:0.064000003 42:0.046999998 43:0.067000002 44:0.16 45:0.066 46:0.097999997 47:0.066 48:0.082000002 49:0.057 50:0.023 51:0.063000001 52:0.11 53:0.064999998 54:0.066 55:0.068999998 56:0.055 57:0.066 58:0.078000002 59:0.059 60:0.18000001 61:0.07 62:0.13 63:0.064000003 64:0.11 65:0.052999999 66:0.063000001 67:0.064000003 68:0.086000003 69:0.059999999 70:0.066 71:0.059999999 72:0.066 73:0.056000002 74:0.074000001 75:0.056000002 76:0.14 77:0.066 78:0.13 79:0.057999998 80:0.090000004 81:0.054000001 82:0.07 83:0.067000002 84:0.082000002 85:0.061000001 86:0.07 87:0.057999998 88:0.055 89:0.061999999 90:0.027000001 91:0.057999998 92:0.078000002 93:0.064999998 94:0.093999997 95:0.057 96:0.030999999 97:0.052999999 98:0.023 99:0.054000001 100:0.02 101:0.056000002 102:0.059 103:0.064999998 104:0.059 105:0.07 106:0.059 107:0.071000002 108:0.074000001 109:0.074000001 110:0.066 111:0.061000001 112:0.027000001 113:0.056000002 114:0.027000001 115:0.056000002 116:0.027000001 117:0.061000001 118:0.066 119:0.061000001 120:0.082000002 121:0.066 122:0.090000004 123:0.067000002 124:0.14 125:0.066 126:0.14 127:0.061999999 128:0.13 
60 1:0.045000002 2:0.027000001 3:0.045000002 4:0.078000002 5:0.041999999 6:0.055 7:0.045000002 8:0.086000003 9:0.052000001 10:0.030999999 11:0.052000001 12:0.050999999 13:0.048 14:0.063000001 15:0.052000001 16:0.043000001 17:0.043000001 18:0.030999999 19:0.050999999 20:0.093999997 21:0.052000001 22:0.066 23:0.055 24:0.074000001 25:0.054000001 26:0.035 27:0.057999998 28:0.074000001 29:0.055 30:0.046999998 31:0.054000001 32:0.066 33:0.041999999 34:0.035 35:0.048999999 36:0.13 37:0.052000001 38:0.07 39:0.045000002 40:0.063000001 41:0.041000001 42:0.046999998 43:0.052999999 44:0.11 45:0.052999999 46:0.078000002 47:0.050000001 48:0.090000004 49:0.045000002 50:0.030999999 51:0.050999999 52:0.13 53:0.052999999 54:0.074000001 55:0.050999999 56:0.066 57:0.041999999 58:0.050999999 59:0.046 60:0.16 61:0.046 62:0.14 63:0.046 64:0.12 65:0.044 66:0.086000003 67:0.050999999 68:0.097999997 69:0.050000001 70:0.074000001 71:0.050000001 72:0.074000001 73:0.043000001 74:0.11 75:0.046999998 76:0.14 77:0.046 78:0.18000001 79:0.044 80:0.13 81:0.039999999 82:0.074000001 83:0.045000002 84:0.097999997 85:0.037999999 86:0.063000001 87:0.041999999 88:0.078000002 89:0.037999999 90:0.11 91:0.043000001 92:0.2 93:0.046 94:0.16 95:0.041999999 96:0.066 97:0.039999999 98:0.043000001 99:0.041000001 100:0.035 101:0.039999999 102:0.039000001 103:0.046999998 104:0.07 105:0.044 106:0.1 107:0.048 108:0.15000001 109:0.050999999 110:0.14 111:0.044 112:0.043000001 113:0.041000001 114:0.090000004 115:0.046 116:0.093999997 117:0.044 118:0.090000004 119:0.044 120:0.093999997 121:0.046 122:0.082000002 123:0.048999999 124:0.11 125:0.050999999 126:0.13 127:0.041999999 128:0.11 
60 1:0.056000002 2:0.02 3:0.059 4:0.046999998 5:0.057 6:0.063000001 7:0.064000003 8:0.043000001 9:0.071000002 10:0.039000001 11:0.071000002 12:0.07 13:0.07 14:0.055 15:0.068999998 16:0.059 17:0.054000001 18:0.023 19:0.064000003 20:0.063000001 21:0.064999998 22:0.066 23:0.07 24:0.055 25:0.067000002 26:0.035 27:0.068000004 28:0.093999997 29:0.059 30:0.043000001 31:0.068000004 32:0.055 33:0.054000001 34:0.023 35:0.063000001 36:0.078000002 37:0.068999998 38:0.078000002 39:0.068000004 40:0.059 41:0.061000001 42:0.035 43:0.061999999 44:0.082000002 45:0.061000001 46:0.07 47:0.059999999 48:0.074000001 49:0.057 50:0.023 51:0.061999999 52:0.086000003 53:0.064999998 54:0.074000001 55:0.064999998 56:0.043000001 57:0.061000001 58:0.039000001 59:0.061000001 60:0.1 61:0.061000001 62:0.07 63:0.052000001 64:0.093999997 65:0.055 66:0.074000001 67:0.066 68:0.1 69:0.057 70:0.074000001 71:0.057999998 72:0.055 73:0.059 74:0.046999998 75:0.064999998 76:0.1 77:0.064999998 78:0.059 79:0.056000002 80:0.063000001 81:0.052999999 82:0.059 83:0.064999998 84:0.066 85:0.061000001 86:0.07 87:0.064000003 88:0.059 89:0.061999999 90:0.050999999 91:0.061000001 92:0.063000001 93:0.061999999 94:0.059 95:0.054000001 96:0.035 97:0.055 98:0.035 99:0.057 100:0.027000001 101:0.061000001 102:0.093999997 103:0.061999999 104:0.078000002 105:0.064999998 106:0.074000001 107:0.061999999 108:0.07 109:0.059 110:0.066 111:0.052000001 112:0.030999999 113:0.056000002 114:0.090000004 115:0.057 116:0.1 117:0.057 118:0.11 119:0.054000001 120:0.11 121:0.055 122:0.11 123:0.055 124:0.14 125:0.052999999 126:0.13 127:0.054000001 128:0.14 
20.98028599641765 1:0.052999999 2:0.012 3:0.054000001 4:0.016000001 5:0.052000001 6:0.0077999998 7:0.055 8:0.016000001 9:0.061000001 10:0.027000001 11:0.068999998 12:0.035 13:0.068999998 14:0.063000001 15:0.064999998 16:0.055 17:0.052999999 18:0.016000001 19:0.07 20:0.066 21:0.071000002 22:0.063000001 23:0.075999998 24:0.050999999 25:0.066 26:0.050999999 27:0.088 28:0.090000004 29:0.079000004 30:0.07 31:0.082999997 32:0.066 33:0.050000001 34:0.02 35:0.059999999 36:0.093999997 37:0.067000002 38:0.074000001 39:0.061999999 40:0.059 41:0.052999999 42:0.063000001 43:0.074000001 44:0.19 45:0.068000004 46:0.12 47:0.071000002 48:0.063000001 49:0.050999999 50:0.046999998 51:0.061999999 52:0.086000003 53:0.061999999 54:0.055 55:0.057 56:0.055 57:0.050999999 58:0.050999999 59:0.067000002 60:0.25 61:0.067000002 62:0.17 63:0.067000002 64:0.090000004 65:0.052000001 66:0.059 67:0.059 68:0.074000001 69:0.054000001 70:0.046999998 71:0.050999999 72:0.055 73:0.046999998 74:0.11 75:0.074000001 76:0.23999999 77:0.07 78:0.19 79:0.071000002 80:0.16 81:0.052000001 82:0.078000002 83:0.061999999 84:0.078000002 85:0.052000001 86:0.059 87:0.046999998 88:0.030999999 89:0.052999999 90:0.11 91:0.067000002 92:0.14 93:0.068999998 94:0.15000001 95:0.064999998 96:0.13 97:0.044 98:0.030999999 99:0.046 100:0.023 101:0.050999999 102:0.063000001 103:0.057999998 104:0.063000001 105:0.057999998 106:0.078000002 107:0.057999998 108:0.16 109:0.067000002 110:0.11 111:0.054000001 112:0.043000001 113:0.050000001 114:0.07 115:0.048999999 116:0.093999997 117:0.056000002 118:0.11 119:0.050999999 120:0.11 121:0.052999999 122:0.11 123:0.054000001 124:0.13 125:0.057999998 126:0.13 127:0.052999999 128:0.14 
33.15137862563002 1:0.068000004 2:0.050999999 3:0.068999998 4:0.055 5:0.071000002 6:0.074000001 7:0.072999999 8:0.055 9:0.071999997 10:0.059 11:0.078000002 12:0.078000002 13:0.077 14:0.066 15:0.068000004 16:0.016000001 17:0.072999999 18:0.055 19:0.086999997 20:0.097999997 21:0.086999997 22:0.063000001 23:0.083999999 24:0.059 25:0.081 26:0.055 27:0.081 28:0.046999998 29:0.078000002 30:0.043000001 31:0.071000002 32:0.023 33:0.082000002 34:0.043000001 35:0.089000002 36:0.050999999 37:0.092 38:0.046999998 39:0.078000002 40:0.030999999 41:0.079999998 42:0.039000001 43:0.078000002 44:0.059 45:0.088 46:0.093999997 47:0.068999998 48:0.02 49:0.075000003 50:0.059 51:0.093999997 52:0.050999999 53:0.089000002 54:0.063000001 55:0.075999998 56:0.07 57:0.064999998 58:0.030999999 59:0.072999999 60:0.016000001 61:0.071999997 62:0.02 63:0.064000003 64:0.016000001 65:0.07 66:0.063000001 67:0.089000002 68:0.050999999 69:0.089000002 70:0.059 71:0.078000002 72:0.055 73:0.072999999 74:0.050999999 75:0.092 76:0.086000003 77:0.068000004 78:0.043000001 79:0.063000001 80:0.066 81:0.064000003 82:0.055 83:0.097999997 84:0.050999999 85:0.090999998 86:0.059 87:0.072999999 88:0.050999999 89:0.068999998 90:0.039000001 91:0.097999997 92:0.074000001 93:0.071000002 94:0.066 95:0.067000002 96:0.093999997 97:0.064999998 98:0.082000002 99:0.085000001 100:0.078000002 101:0.075000003 102:0.059 103:0.074000001 104:0.046999998 105:0.075000003 106:0.046999998 107:0.086000003 108:0.07 109:0.075000003 110:0.1 111:0.066 112:0.082000002 113:0.054000001 114:0.07 115:0.059999999 116:0.086000003 117:0.057999998 118:0.066 119:0.061999999 120:0.066 121:0.064000003 122:0.046999998 123:0.061000001 124:0.066 125:0.061999999 126:0.12 127:0.059999999 128:0.13 
60 1:0.056000002 2:0.14 3:0.056000002 4:0.13 5:0.061999999 6:0.14 7:0.064000003 8:0.11 9:0.064999998 10:0.17 11:0.07 12:0.14 13:0.061000001 14:0.046999998 15:0.057999998 16:0.030999999 17:0.055 18:0.13 19:0.067000002 20:0.090000004 21:0.063000001 22:0.074000001 23:0.067000002 24:0.063000001 25:0.064999998 26:0.063000001 27:0.067000002 28:0.023 29:0.068000004 30:0.023 31:0.061000001 32:0.023 33:0.048999999 34:0.07 35:0.059 36:0.059 37:0.061999999 38:0.055 39:0.068999998 40:0.059 41:0.064999998 42:0.043000001 43:0.064999998 44:0.059 45:0.064000003 46:0.030999999 47:0.059999999 48:0.030999999 49:0.052999999 50:0.086000003 51:0.057 52:0.050999999 53:0.063000001 54:0.082000002 55:0.064999998 56:0.059 57:0.061999999 58:0.063000001 59:0.059999999 60:0.063000001 61:0.059999999 62:0.030999999 63:0.057 64:0.027000001 65:0.052000001 66:0.07 67:0.055 68:0.055 69:0.055 70:0.046999998 71:0.056000002 72:0.063000001 73:0.048999999 74:0.063000001 75:0.056000002 76:0.050999999 77:0.057999998 78:0.055 79:0.056000002 80:0.027000001 81:0.052000001 82:0.074000001 83:0.052999999 84:0.050999999 85:0.057 86:0.046999998 87:0.059 88:0.066 89:0.052999999 90:0.07 91:0.067000002 92:0.046999998 93:0.059999999 94:0.066 95:0.054000001 96:0.035 97:0.052000001 98:0.13 99:0.055 100:0.12 101:0.054000001 102:0.023 103:0.056000002 104:0.02 105:0.055 106:0.023 107:0.057999998 108:0.027000001 109:0.055 110:0.055 111:0.052000001 112:0.027000001 113:0.046999998 114:0.030999999 115:0.048999999 116:0.027000001 117:0.050999999 118:0.030999999 119:0.050999999 120:0.02 121:0.050000001 122:0.023 123:0.048999999 124:0.023 125:0.050000001 126:0.023 127:0.048999999 128:0.023 
30.85669456150287 1:0.056000002 2:0.13 3:0.055 4:0.16 5:0.061000001 6:0.14 7:0.063000001 8:0.12 9:0.064000003 10:0.18000001 11:0.067000002 12:0.15000001 13:0.061999999 14:0.07 15:0.057 16:0.035 17:0.054000001 18:0.11 19:0.066 20:0.074000001 21:0.063000001 22:0.078000002 23:0.064999998 24:0.066 25:0.061000001 26:0.059 27:0.064000003 28:0.027000001 29:0.066 30:0.027000001 31:0.059999999 32:0.027000001 33:0.046 34:0.078000002 35:0.057 36:0.046999998 37:0.059999999 38:0.063000001 39:0.067000002 40:0.059 41:0.064999998 42:0.050999999 43:0.063000001 44:0.063000001 45:0.061999999 46:0.02 47:0.059999999 48:0.027000001 49:0.048999999 50:0.086000003 51:0.056000002 52:0.055 53:0.061999999 54:0.082000002 55:0.063000001 56:0.063000001 57:0.061000001 58:0.055 59:0.057999998 60:0.059 61:0.057999998 62:0.023 63:0.055 64:0.030999999 65:0.050999999 66:0.086000003 67:0.055 68:0.043000001 69:0.052999999 70:0.050999999 71:0.056000002 72:0.059 73:0.048999999 74:0.066 75:0.052999999 76:0.046999998 77:0.055 78:0.039000001 79:0.052000001 80:0.023 81:0.052000001 82:0.066 83:0.052000001 84:0.059 85:0.054000001 86:0.043000001 87:0.055 88:0.07 89:0.050999999 90:0.066 91:0.064999998 92:0.039000001 93:0.057 94:0.07 95:0.054000001 96:0.030999999 97:0.050999999 98:0.11 99:0.054000001 100:0.093999997 101:0.052000001 102:0.027000001 103:0.052999999 104:0.023 105:0.052999999 106:0.02 107:0.055 108:0.027000001 109:0.052999999 110:0.039000001 111:0.050999999 112:0.027000001 113:0.045000002 114:0.030999999 115:0.048999999 116:0.035 117:0.050999999 118:0.030999999 119:0.048 120:0.023 121:0.048999999 122:0.030999999 123:0.048 124:0.030999999 125:0.048999999 126:0.027000001 127:0.048 128:0.023 
60 1:0.068000004 2:0.090000004 3:0.082999997 4:0.11 5:0.079999998 6:0.1 7:0.092 8:0.15000001 9:0.093000002 10:0.14 11:0.088 12:0.15000001 13:0.089000002 14:0.19 15:0.07 16:0.1 17:0.083999999 18:0.12 19:0.11 20:0.059 21:0.085000001 22:0.046999998 23:0.097999997 24:0.055 25:0.096000001 26:0.043000001 27:0.093999997 28:0.023 29:0.081 30:0.016000001 31:0.071999997 32:0.016000001 33:0.064000003 34:0.086000003 35:0.082000002 36:0.050999999 37:0.082999997 38:0.043000001 39:0.096000001 40:0.063000001 41:0.090999998 42:0.059 43:0.089000002 44:0.046999998 45:0.097000003 46:0.023 47:0.082000002 48:0.02 49:0.056000002 50:0.063000001 51:0.082999997 52:0.063000001 53:0.077 54:0.046999998 55:0.096000001 56:0.063000001 57:0.096000001 58:0.055 59:0.088 60:0.063000001 61:0.1 62:0.027000001 63:0.083999999 64:0.016000001 65:0.067000002 66:0.059 67:0.07 68:0.035 69:0.078000002 70:0.059 71:0.092 72:0.046999998 73:0.088 74:0.046999998 75:0.079999998 76:0.043000001 77:0.083999999 78:0.023 79:0.068999998 80:0.016000001 81:0.071000002 82:0.063000001 83:0.072999999 84:0.030999999 85:0.079999998 86:0.059 87:0.086999997 88:0.050999999 89:0.079999998 90:0.055 91:0.093000002 92:0.07 93:0.093999997 94:0.063000001 95:0.078000002 96:0.055 97:0.072999999 98:0.074000001 99:0.074000001 100:0.039000001 101:0.081 102:0.059 103:0.081 104:0.063000001 105:0.075999998 106:0.063000001 107:0.090999998 108:0.078000002 109:0.1 110:0.063000001 111:0.082000002 112:0.050999999 113:0.052999999 114:0.066 115:0.052999999 116:0.023 117:0.067000002 118:0.055 119:0.081 120:0.055 121:0.075999998 122:0.07 123:0.074000001 124:0.059 125:0.071000002 126:0.050999999 127:0.059999999 128:0.027000001 
44.63345157921299 1:0.063000001 2:0.12 3:0.072999999 4:0.12 5:0.066 6:0.16 7:0.079000004 8:0.16 9:0.079000004 10:0.16 11:0.075000003 12:0.16 13:0.079999998 14:0.19 15:0.067000002 16:0.17 17:0.077 18:0.11 19:0.092 20:0.086000003 21:0.071999997 22:0.063000001 23:0.082999997 24:0.078000002 25:0.081 26:0.055 27:0.079000004 28:0.016000001 29:0.068999998 30:0.016000001 31:0.061000001 32:0.02 33:0.057999998 34:0.043000001 35:0.074000001 36:0.043000001 37:0.071999997 38:0.043000001 39:0.079999998 40:0.059 41:0.075000003 42:0.046999998 43:0.074000001 44:0.063000001 45:0.082999997 46:0.016000001 47:0.068000004 48:0.02 49:0.056000002 50:0.07 51:0.079999998 52:0.055 53:0.068999998 54:0.055 55:0.081 56:0.059 57:0.079000004 58:0.055 59:0.071999997 60:0.050999999 61:0.083999999 62:0.016000001 63:0.072999999 64:0.027000001 65:0.064999998 66:0.066 67:0.068999998 68:0.039000001 69:0.071000002 70:0.050999999 71:0.079999998 72:0.043000001 73:0.071999997 74:0.035 75:0.064000003 76:0.050999999 77:0.07 78:0.016000001 79:0.059 80:0.016000001 81:0.067000002 82:0.059 83:0.07 84:0.027000001 85:0.074000001 86:0.059 87:0.075000003 88:0.055 89:0.068000004 90:0.063000001 91:0.078000002 92:0.046999998 93:0.082999997 94:0.046999998 95:0.066 96:0.035 97:0.067000002 98:0.055 99:0.061999999 100:0.027000001 101:0.072999999 102:0.059 103:0.072999999 104:0.059 105:0.067000002 106:0.059 107:0.079000004 108:0.066 109:0.086999997 110:0.046999998 111:0.068999998 112:0.039000001 113:0.046999998 114:0.023 115:0.048 116:0.023 117:0.057 118:0.059 119:0.066 120:0.046999998 121:0.064000003 122:0.066 123:0.061000001 124:0.059 125:0.059999999 126:0.043000001 127:0.052000001 128:0.027000001 
17.63955268652446 1:0.22 2:0.046999998 3:0.22 4:0.07 5:0.22 6:0.07 7:0.22 8:0.07 9:0.20999999 10:0.07 11:0.22 12:0.046999998 13:0.2 14:0.050999999 15:0.19 16:0.043000001 17:0.22 18:0.043000001 19:0.23 20:0.059 21:0.23 22:0.07 23:0.23 24:0.063000001 25:0.22 26:0.035 27:0.20999999 28:0.055 29:0.20999999 30:0.063000001 31:0.18000001 32:0.050999999 33:0.20999999 34:0.046999998 35:0.16 36:0.059 37:0.23 38:0.066 39:0.22 40:0.07 41:0.22 42:0.066 43:0.20999999 44:0.02 45:0.19 46:0.016000001 47:0.18000001 48:0.0077999998 49:0.19 50:0.055 51:0.17 52:0.043000001 53:0.20999999 54:0.07 55:0.22 56:0.07 57:0.23 58:0.066 59:0.22 60:0.066 61:0.19 62:0.082000002 63:0.18000001 64:0.012 65:0.2 66:0.039000001 67:0.19 68:0.055 69:0.22 70:0.066 71:0.22 72:0.066 73:0.22 74:0.07 75:0.22 76:0.063000001 77:0.20999999 78:0.066 79:0.19 80:0.055 81:0.19 82:0.050999999 83:0.19 84:0.055 85:0.20999999 86:0.07 87:0.22 88:0.07 89:0.20999999 90:0.066 91:0.22 92:0.066 93:0.2 94:0.066 95:0.19 96:0.016000001 97:0.20999999 98:0.07 99:0.20999999 100:0.07 101:0.20999999 102:0.066 103:0.22 104:0.066 105:0.22 106:0.07 107:0.23 108:0.066 109:0.20999999 110:0.090000004 111:0.19 112:0.07 113:0.2 114:0.063000001 115:0.2 116:0.074000001 117:0.2 118:0.066 119:0.20999999 120:0.066 121:0.20999999 122:0.066 123:0.20999999 124:0.066 125:0.2 126:0.063000001 127:0.19 128:0.063000001 
0.968450263715928 1:0.041000001 2:0.093999997 3:0.039000001 4:0.15000001 5:0.041999999 6:0.16 7:0.044 8:0.082000002 9:0.041999999 10:0.12 11:0.048 12:0.22 13:0.044 14:0.2 15:0.039999999 16:0.14 17:0.045000002 18:0.13 19:0.041999999 20:0.18000001 21:0.041000001 22:0.12 23:0.039000001 24:0.093999997 25:0.039999999 26:0.1 27:0.037999999 28:0.15000001 29:0.034000002 30:0.13 31:0.035 32:0.13 33:0.045000002 34:0.15000001 35:0.048 36:0.18000001 37:0.044 38:0.18000001 39:0.043000001 40:0.11 41:0.044 42:0.11 43:0.043000001 44:0.078000002 45:0.044 46:0.12 47:0.039999999 48:0.16 49:0.044 50:0.16 51:0.046999998 52:0.2 53:0.045000002 54:0.15000001 55:0.041999999 56:0.11 57:0.039999999 58:0.093999997 59:0.041999999 60:0.086000003 61:0.044 62:0.086000003 63:0.041999999 64:0.18000001 65:0.039000001 66:0.13 67:0.035 68:0.16 69:0.037 70:0.1 71:0.035999998 72:0.086000003 73:0.034000002 74:0.030999999 75:0.041000001 76:0.097999997 77:0.043000001 78:0.086000003 79:0.041999999 80:0.16 81:0.041000001 82:0.11 83:0.037 84:0.14 85:0.039000001 86:0.13 87:0.034000002 88:0.078000002 89:0.034000002 90:0.078000002 91:0.041999999 92:0.1 93:0.044 94:0.078000002 95:0.041999999 96:0.17 97:0.041999999 98:0.17 99:0.050000001 100:0.18000001 101:0.043000001 102:0.16 103:0.041999999 104:0.090000004 105:0.039000001 106:0.090000004 107:0.037999999 108:0.097999997 109:0.035999998 110:0.093999997 111:0.041999999 112:0.18000001 113:0.037 114:0.15000001 115:0.046 116:0.16 117:0.039999999 118:0.17 119:0.037 120:0.12 121:0.039999999 122:0.097999997 123:0.033 124:0.17 125:0.034000002 126:0.17 127:0.034000002 128:0.17 
56.89743076473616 1:0.059999999 2:0.082000002 3:0.059999999 4:0.093999997 5:0.064000003 6:0.11 7:0.067000002 8:0.063000001 9:0.057999998 10:0.050999999 11:0.067000002 12:0.12 13:0.064999998 14:0.1 15:0.061000001 16:0.093999997 17:0.063000001 18:0.11 19:0.068000004 20:0.13 21:0.07 22:0.11 23:0.064000003 24:0.055 25:0.059999999 26:0.07 27:0.050999999 28:0.07 29:0.048 30:0.050999999 31:0.059 32:0.07 33:0.061999999 34:0.11 35:0.066 36:0.14 37:0.07 38:0.11 39:0.068999998 40:0.07 41:0.063000001 42:0.074000001 43:0.059 44:0.074000001 45:0.056000002 46:0.078000002 47:0.057999998 48:0.1 49:0.061000001 50:0.11 51:0.068999998 52:0.11 53:0.064999998 54:0.086000003 55:0.063000001 56:0.07 57:0.064000003 58:0.07 59:0.057999998 60:0.1 61:0.056000002 62:0.07 63:0.052999999 64:0.14 65:0.052000001 66:0.074000001 67:0.052999999 68:0.11 69:0.052000001 70:0.082000002 71:0.046 72:0.059 73:0.048999999 74:0.023 75:0.052999999 76:0.11 77:0.054000001 78:0.082000002 79:0.052999999 80:0.13 81:0.054000001 82:0.082000002 83:0.052000001 84:0.093999997 85:0.056000002 86:0.074000001 87:0.052999999 88:0.07 89:0.052999999 90:0.055 91:0.057 92:0.093999997 93:0.059999999 94:0.074000001 95:0.052999999 96:0.11 97:0.061999999 98:0.11 99:0.068000004 100:0.11 101:0.066 102:0.078000002 103:0.066 104:0.074000001 105:0.064000003 106:0.074000001 107:0.050999999 108:0.039000001 109:0.050999999 110:0.039000001 111:0.054000001 112:0.093999997 113:0.056000002 114:0.11 115:0.061999999 116:0.11 117:0.059999999 118:0.082000002 119:0.057999998 120:0.082000002 121:0.056000002 122:0.090000004 123:0.055 124:0.11 125:0.055 126:0.097999997 127:0.052000001 128:0.086000003 
45.31613614293968 1:0.043000001 2:0.027000001 3:0.046999998 4:0.066 5:0.045000002 6:0.055 7:0.045000002 8:0.07 9:0.045000002 10:0.074000001 11:0.050000001 12:0.059 13:0.052999999 14:0.082000002 15:0.050999999 16:0.090000004 17:0.050000001 18:0.059 19:0.052000001 20:0.097999997 21:0.052000001 22:0.078000002 23:0.048999999 24:0.063000001 25:0.048999999 26:0.07 27:0.050999999 28:0.066 29:0.052000001 30:0.090000004 31:0.050000001 32:0.066 33:0.052999999 34:0.078000002 35:0.061999999 36:0.12 37:0.061000001 38:0.093999997 39:0.057 40:0.066 41:0.052000001 42:0.07 43:0.057999998 44:0.059 45:0.067000002 46:0.11 47:0.057999998 48:0.074000001 49:0.056000002 50:0.14 51:0.075000003 52:0.13 53:0.068999998 54:0.086000003 55:0.067000002 56:0.086000003 57:0.061000001 58:0.11 59:0.063000001 60:0.082000002 61:0.072999999 62:0.074000001 63:0.059999999 64:0.097999997 65:0.048999999 66:0.16 67:0.052999999 68:0.14 69:0.046 70:0.11 71:0.045000002 72:0.059 73:0.043000001 74:0.046999998 75:0.059 76:0.074000001 77:0.074000001 78:0.082000002 79:0.059999999 80:0.11 81:0.054000001 82:0.18000001 83:0.050999999 84:0.15000001 85:0.046999998 86:0.12 87:0.048 88:0.074000001 89:0.041999999 90:0.055 91:0.057999998 92:0.059 93:0.074000001 94:0.078000002 95:0.061000001 96:0.11 97:0.045000002 98:0.059 99:0.064000003 100:0.15000001 101:0.057 102:0.13 103:0.057 104:0.12 105:0.057999998 106:0.11 107:0.050999999 108:0.15000001 109:0.055 110:0.14 111:0.052999999 112:0.17 113:0.041000001 114:0.063000001 115:0.061000001 116:0.15000001 117:0.057999998 118:0.16 119:0.054000001 120:0.17 121:0.055 122:0.16 123:0.046 124:0.14 125:0.044 126:0.17 127:0.046 128:0.17 
60 1:0.043000001 2:0.055 3:0.046999998 4:0.059 5:0.046 6:0.059 7:0.045000002 8:0.07 9:0.045000002 10:0.059 11:0.050000001 12:0.074000001 13:0.052000001 14:0.1 15:0.048 16:0.12 17:0.046999998 18:0.063000001 19:0.050000001 20:0.090000004 21:0.050000001 22:0.050999999 23:0.048999999 24:0.059 25:0.046 26:0.055 27:0.046 28:0.063000001 29:0.045000002 30:0.093999997 31:0.044 32:0.035 33:0.050999999 34:0.082000002 35:0.057999998 36:0.14 37:0.059 38:0.078000002 39:0.055 40:0.090000004 41:0.052000001 42:0.090000004 43:0.057 44:0.066 45:0.066 46:0.13 47:0.056000002 48:0.090000004 49:0.059 50:0.13 51:0.078000002 52:0.12 53:0.07 54:0.074000001 55:0.064000003 56:0.074000001 57:0.064000003 58:0.082000002 59:0.064000003 60:0.055 61:0.077 62:0.050999999 63:0.057 64:0.12 65:0.052000001 66:0.16 67:0.052999999 68:0.15000001 69:0.045000002 70:0.090000004 71:0.046 72:0.063000001 73:0.044 74:0.055 75:0.057 76:0.046999998 77:0.071000002 78:0.063000001 79:0.056000002 80:0.1 81:0.055 82:0.16 83:0.050000001 84:0.14 85:0.046999998 86:0.13 87:0.046999998 88:0.13 89:0.041999999 90:0.078000002 91:0.057999998 92:0.050999999 93:0.071000002 94:0.11 95:0.057999998 96:0.11 97:0.048999999 98:0.078000002 99:0.066 100:0.13 101:0.057999998 102:0.13 103:0.064000003 104:0.17 105:0.066 106:0.17 107:0.048 108:0.17 109:0.050999999 110:0.16 111:0.048 112:0.17 113:0.044 114:0.082000002 115:0.064000003 116:0.12 117:0.057999998 118:0.16 119:0.056000002 120:0.18000001 121:0.055 122:0.17 123:0.046 124:0.17 125:0.045000002 126:0.15000001 127:0.044 128:0.15000001 
1.25342383586156 1:0.043000001 2:0.035 3:0.048 4:0.11 5:0.043000001 6:0.082000002 7:0.045000002 8:0.063000001 9:0.044 10:0.043000001 11:0.048999999 12:0.063000001 13:0.046 14:0.12 15:0.046999998 16:0.086000003 17:0.052999999 18:0.1 19:0.068000004 20:0.13 21:0.057 22:0.074000001 23:0.057999998 24:0.066 25:0.050000001 26:0.063000001 27:0.046 28:0.078000002 29:0.046 30:0.086000003 31:0.041000001 32:0.050999999 33:0.048 34:0.11 35:0.059 36:0.13 37:0.055 38:0.093999997 39:0.052999999 40:0.066 41:0.054000001 42:0.07 43:0.061000001 44:0.050999999 45:0.075000003 46:0.050999999 47:0.056000002 48:0.12 49:0.057999998 50:0.15000001 51:0.057 52:0.13 53:0.056000002 54:0.12 55:0.052999999 56:0.07 57:0.050999999 58:0.063000001 59:0.061999999 60:0.074000001 61:0.068999998 62:0.066 63:0.056000002 64:0.13 65:0.050000001 66:0.13 67:0.063000001 68:0.15000001 69:0.044 70:0.074000001 71:0.039000001 72:0.055 73:0.039999999 74:0.059 75:0.061000001 76:0.1 77:0.068000004 78:0.082000002 79:0.056000002 80:0.13 81:0.048 82:0.16 83:0.044 84:0.15000001 85:0.045000002 86:0.14 87:0.044 88:0.074000001 89:0.039000001 90:0.043000001 91:0.048999999 92:0.066 93:0.057 94:0.1 95:0.044 96:0.11 97:0.043000001 98:0.093999997 99:0.061999999 100:0.14 101:0.056000002 102:0.13 103:0.050999999 104:0.12 105:0.052999999 106:0.12 107:0.037999999 108:0.07 109:0.037 110:0.07 111:0.044 112:0.046999998 113:0.039000001 114:0.082000002 115:0.052999999 116:0.11 117:0.048999999 118:0.11 119:0.048999999 120:0.14 121:0.048 122:0.15000001 123:0.046999998 124:0.12 125:0.048 126:0.13 127:0.044 128:0.097999997 
16.27596760549591 1:0.030999999 2:0.16 3:0.030999999 4:0.16 5:0.032000002 6:0.18000001 7:0.030999999 8:0.13 9:0.030999999 10:0.12 11:0.033 12:0.18000001 13:0.033 14:0.2 15:0.034000002 16:0.19 17:0.037999999 18:0.18000001 19:0.033 20:0.19 21:0.035 22:0.14 23:0.030999999 24:0.097999997 25:0.028999999 26:0.097999997 27:0.028999999 28:0.16 29:0.027000001 30:0.086000003 31:0.030999999 32:0.18000001 33:0.035999998 34:0.22 35:0.039000001 36:0.20999999 37:0.037 38:0.2 39:0.035 40:0.13 41:0.032000002 42:0.14 43:0.035 44:0.16 45:0.037999999 46:0.12 47:0.037999999 48:0.2 49:0.037 50:0.22 51:0.043000001 52:0.20999999 53:0.035 54:0.13 55:0.033 56:0.097999997 57:0.029999999 58:0.11 59:0.034000002 60:0.20999999 61:0.035999998 62:0.11 63:0.033 64:0.19 65:0.035 66:0.23 67:0.032000002 68:0.23 69:0.026000001 70:0.15000001 71:0.025 72:0.097999997 73:0.024 74:0.097999997 75:0.030999999 76:0.22 77:0.034000002 78:0.15000001 79:0.029999999 80:0.20999999 81:0.030999999 82:0.20999999 83:0.028000001 84:0.20999999 85:0.028999999 86:0.2 87:0.028000001 88:0.14 89:0.025 90:0.11 91:0.028999999 92:0.15000001 93:0.039999999 94:0.13 95:0.035 96:0.22 97:0.032000002 98:0.22 99:0.046999998 100:0.22 101:0.035 102:0.20999999 103:0.030999999 104:0.2 105:0.028000001 106:0.18000001 107:0.024 108:0.2 109:0.025 110:0.20999999 111:0.029999999 112:0.23999999 113:0.028000001 114:0.2 115:0.035999998 116:0.2 117:0.028999999 118:0.20999999 119:0.027000001 120:0.19 121:0.025 122:0.23999999 123:0.024 124:0.23 125:0.024 126:0.23 127:0.025 128:0.19 
60 1:0.057999998 2:0.059 3:0.059999999 4:0.086000003 5:0.059999999 6:0.090000004 7:0.056000002 8:0.07 9:0.057 10:0.074000001 11:0.068000004 12:0.1 13:0.061999999 14:0.11 15:0.061000001 16:0.11 17:0.064999998 18:0.07 19:0.063000001 20:0.1 21:0.061000001 22:0.078000002 23:0.059999999 24:0.055 25:0.052000001 26:0.046999998 27:0.059 28:0.050999999 29:0.050999999 30:0.030999999 31:0.055 32:0.093999997 33:0.061999999 34:0.093999997 35:0.07 36:0.11 37:0.07 38:0.086000003 39:0.071999997 40:0.059 41:0.066 42:0.059 43:0.059999999 44:0.050999999 45:0.064999998 46:0.07 47:0.056000002 48:0.11 49:0.064000003 50:0.15000001 51:0.068999998 52:0.13 53:0.061000001 54:0.093999997 55:0.064000003 56:0.055 57:0.056000002 58:0.059 59:0.064000003 60:0.082000002 61:0.082999997 62:0.07 63:0.055 64:0.12 65:0.052000001 66:0.063000001 67:0.057999998 68:0.11 69:0.055 70:0.074000001 71:0.043000001 72:0.050999999 73:0.035999998 74:0.02 75:0.057 76:0.078000002 77:0.063000001 78:0.086000003 79:0.050000001 80:0.13 81:0.052000001 82:0.059 83:0.050999999 84:0.12 85:0.056000002 86:0.11 87:0.052999999 88:0.066 89:0.044 90:0.046999998 91:0.061000001 92:0.074000001 93:0.079999998 94:0.086000003 95:0.055 96:0.11 97:0.057 98:0.093999997 99:0.068000004 100:0.11 101:0.064999998 102:0.1 103:0.064999998 104:0.086000003 105:0.061000001 106:0.066 107:0.061000001 108:0.074000001 109:0.068000004 110:0.13 111:0.063000001 112:0.19 113:0.050999999 114:0.078000002 115:0.061999999 116:0.11 117:0.061999999 118:0.1 119:0.066 120:0.11 121:0.063000001 122:0.12 123:0.056000002 124:0.093999997 125:0.055 126:0.086000003 127:0.055 128:0.086000003 
60 1:0.054000001 2:0.046999998 3:0.057 4:0.097999997 5:0.056000002 6:0.074000001 7:0.056000002 8:0.074000001 9:0.050000001 10:0.050999999 11:0.057999998 12:0.082000002 13:0.052999999 14:0.17 15:0.052000001 16:0.1 17:0.059999999 18:0.059 19:0.057 20:0.1 21:0.057999998 22:0.078000002 23:0.052000001 24:0.063000001 25:0.050999999 26:0.050999999 27:0.054000001 28:0.055 29:0.044 30:0.035 31:0.048 32:0.050999999 33:0.059 34:0.11 35:0.063000001 36:0.12 37:0.064999998 38:0.11 39:0.061000001 40:0.090000004 41:0.059999999 42:0.082000002 43:0.054000001 44:0.046999998 45:0.061000001 46:0.066 47:0.048 48:0.11 49:0.057999998 50:0.16 51:0.066 52:0.13 53:0.057999998 54:0.093999997 55:0.057 56:0.078000002 57:0.057 58:0.12 59:0.059999999 60:0.082000002 61:0.074000001 62:0.11 63:0.056000002 64:0.13 65:0.059 66:0.15000001 67:0.057 68:0.14 69:0.045000002 70:0.093999997 71:0.041999999 72:0.043000001 73:0.035999998 74:0.023 75:0.056000002 76:0.13 77:0.07 78:0.14 79:0.052999999 80:0.13 81:0.048999999 82:0.16 83:0.046999998 84:0.11 85:0.048 86:0.11 87:0.046999998 88:0.055 89:0.039000001 90:0.043000001 91:0.050000001 92:0.097999997 93:0.071000002 94:0.15000001 95:0.048 96:0.12 97:0.052999999 98:0.11 99:0.064000003 100:0.13 101:0.057 102:0.097999997 103:0.057999998 104:0.059 105:0.048999999 106:0.063000001 107:0.046999998 108:0.059 109:0.055 110:0.097999997 111:0.052999999 112:0.13 113:0.046 114:0.11 115:0.056000002 116:0.12 117:0.050999999 118:0.12 119:0.046 120:0.13 121:0.046999998 122:0.11 123:0.039999999 124:0.12 125:0.039999999 126:0.13 127:0.043000001 128:0.14 
60 1:0.061000001 2:0.059 3:0.061999999 4:0.078000002 5:0.061000001 6:0.055 7:0.057999998 8:0.023 9:0.055 10:0.063000001 11:0.067000002 12:0.066 13:0.068000004 14:0.086000003 15:0.064999998 16:0.093999997 17:0.07 18:0.074000001 19:0.061999999 20:0.078000002 21:0.064999998 22:0.074000001 23:0.061999999 24:0.063000001 25:0.057999998 26:0.055 27:0.057 28:0.050999999 29:0.055 30:0.027000001 31:0.057 32:0.082000002 33:0.068999998 34:0.11 35:0.068999998 36:0.11 37:0.072999999 38:0.082000002 39:0.07 40:0.066 41:0.07 42:0.059 43:0.063000001 44:0.050999999 45:0.072999999 46:0.063000001 47:0.061999999 48:0.1 49:0.064999998 50:0.11 51:0.071999997 52:0.090000004 53:0.072999999 54:0.086000003 55:0.07 56:0.050999999 57:0.061999999 58:0.046999998 59:0.068000004 60:0.046999998 61:0.078000002 62:0.082000002 63:0.066 64:0.090000004 65:0.054000001 66:0.066 67:0.045000002 68:0.016000001 69:0.046999998 70:0.012 71:0.044 72:0.016000001 73:0.043000001 74:0.02 75:0.061999999 76:0.035 77:0.072999999 78:0.066 79:0.063000001 80:0.082000002 81:0.052999999 82:0.055 83:0.052000001 84:0.082000002 85:0.057 86:0.074000001 87:0.054000001 88:0.055 89:0.048999999 90:0.046999998 91:0.064999998 92:0.074000001 93:0.096000001 94:0.066 95:0.068999998 96:0.14 97:0.059 98:0.078000002 99:0.072999999 100:0.11 101:0.068999998 102:0.093999997 103:0.068999998 104:0.074000001 105:0.066 106:0.074000001 107:0.061000001 108:0.078000002 109:0.071000002 110:0.093999997 111:0.071000002 112:0.13 113:0.057999998 114:0.082000002 115:0.067000002 116:0.11 117:0.068999998 118:0.11 119:0.064999998 120:0.13 121:0.063000001 122:0.13 123:0.054000001 124:0.11 125:0.056000002 126:0.13 127:0.057 128:0.13 
36.63319901090373 1:0.044 2:0.082000002 3:0.041999999 4:0.17 5:0.046999998 6:0.093999997 7:0.046999998 8:0.086000003 9:0.046999998 10:0.078000002 11:0.048 12:0.086000003 13:0.048999999 14:0.1 15:0.041999999 16:0.027000001 17:0.044 18:0.15000001 19:0.048999999 20:0.074000001 21:0.046999998 22:0.078000002 23:0.046 24:0.093999997 25:0.039999999 26:0.074000001 27:0.037999999 28:0.035 29:0.039000001 30:0.043000001 31:0.039999999 32:0.035 33:0.033 34:0.13 35:0.032000002 36:0.063000001 37:0.034000002 38:0.07 39:0.035999998 40:0.07 41:0.035 42:0.027000001 43:0.037 44:0.030999999 45:0.034000002 46:0.059 47:0.037999999 48:0.043000001 49:0.028000001 50:0.07 51:0.032000002 52:0.074000001 53:0.032000002 54:0.074000001 55:0.037 56:0.097999997 57:0.037 58:0.082000002 59:0.039999999 60:0.1 61:0.037999999 62:0.078000002 63:0.039999999 64:0.043000001 65:0.032000002 66:0.13 67:0.041999999 68:0.063000001 69:0.039000001 70:0.078000002 71:0.037 72:0.097999997 73:0.035 74:0.086000003 75:0.041999999 76:0.078000002 77:0.033 78:0.078000002 79:0.037 80:0.039000001 81:0.035 82:0.15000001 83:0.035999998 84:0.059 85:0.037999999 86:0.059 87:0.035999998 88:0.086000003 89:0.033 90:0.1 91:0.039999999 92:0.093999997 93:0.037 94:0.043000001 95:0.037999999 96:0.030999999 97:0.035 98:0.1 99:0.037999999 100:0.046999998 101:0.041999999 102:0.082000002 103:0.037 104:0.043000001 105:0.034000002 106:0.046999998 107:0.032000002 108:0.046999998 109:0.039000001 110:0.035 111:0.039000001 112:0.039000001 113:0.035999998 114:0.16 115:0.037999999 116:0.11 117:0.041999999 118:0.13 119:0.037 120:0.11 121:0.037 122:0.097999997 123:0.033 124:0.086000003 125:0.037999999 126:0.078000002 127:0.035999998 128:0.11 
51.96448625798918 1:0.071999997 2:0.13 3:0.075000003 4:0.074000001 5:0.074000001 6:0.039000001 7:0.068999998 8:0.043000001 9:0.064000003 10:0.050999999 11:0.063000001 12:0.055 13:0.063000001 14:0.066 15:0.064999998 16:0.17 17:0.057999998 18:0.11 19:0.061999999 20:0.063000001 21:0.064000003 22:0.055 23:0.061000001 24:0.055 25:0.061000001 26:0.055 27:0.066 28:0.050999999 29:0.063000001 30:0.1 31:0.064000003 32:0.1 33:0.048 34:0.086000003 35:0.056000002 36:0.059 37:0.056000002 38:0.063000001 39:0.059 40:0.074000001 41:0.059 42:0.078000002 43:0.068000004 44:0.046999998 45:0.064999998 46:0.030999999 47:0.061999999 48:0.043000001 49:0.048 50:0.13 51:0.057 52:0.050999999 53:0.054000001 54:0.066 55:0.063000001 56:0.059 57:0.064999998 58:0.035 59:0.066 60:0.035 61:0.063000001 62:0.043000001 63:0.061999999 64:0.066 65:0.046 66:0.16 67:0.059999999 68:0.046999998 69:0.052999999 70:0.066 71:0.061000001 72:0.07 73:0.066 74:0.074000001 75:0.063000001 76:0.074000001 77:0.064000003 78:0.035 79:0.054000001 80:0.050999999 81:0.048999999 82:0.11 83:0.052000001 84:0.097999997 85:0.050999999 86:0.14 87:0.054000001 88:0.074000001 89:0.061999999 90:0.07 91:0.061000001 92:0.078000002 93:0.057999998 94:0.043000001 95:0.054000001 96:0.043000001 97:0.048 98:0.059 99:0.057999998 100:0.18000001 101:0.061999999 102:0.19 103:0.059999999 104:0.13 105:0.059 106:0.07 107:0.055 108:0.043000001 109:0.052999999 110:0.046999998 111:0.054000001 112:0.063000001 113:0.061000001 114:0.11 115:0.064000003 116:0.18000001 117:0.066 118:0.18000001 119:0.064999998 120:0.19 121:0.061999999 122:0.16 123:0.059999999 124:0.063000001 125:0.057 126:0.046999998 127:0.057999998 128:0.12 
60 1:0.072999999 2:0.02 3:0.067000002 4:0.055 5:0.068000004 6:0.046999998 7:0.068000004 8:0.039000001 9:0.066 10:0.027000001 11:0.066 12:0.043000001 13:0.068000004 14:0.035 15:0.067000002 16:0.030999999 17:0.064000003 18:0.02 19:0.063000001 20:0.039000001 21:0.064999998 22:0.07 23:0.067000002 24:0.059 25:0.07 26:0.043000001 27:0.064999998 28:0.050999999 29:0.068999998 30:0.035 31:0.067000002 32:0.023 33:0.061999999 34:0.090000004 35:0.064999998 36:0.050999999 37:0.063000001 38:0.078000002 39:0.067000002 40:0.063000001 41:0.07 42:0.063000001 43:0.056000002 44:0.055 45:0.064999998 46:0.02 47:0.064999998 48:0.02 49:0.063000001 50:0.078000002 51:0.061999999 52:0.030999999 53:0.057999998 54:0.066 55:0.061999999 56:0.066 57:0.063000001 58:0.046999998 59:0.061000001 60:0.039000001 61:0.061999999 62:0.035 63:0.063000001 64:0.035 65:0.061000001 66:0.027000001 67:0.061000001 68:0.035 69:0.052999999 70:0.043000001 71:0.055 72:0.074000001 73:0.052000001 74:0.066 75:0.061000001 76:0.066 77:0.059 78:0.043000001 79:0.059999999 80:0.039000001 81:0.056000002 82:0.090000004 83:0.061000001 84:0.039000001 85:0.057 86:0.059 87:0.057 88:0.055 89:0.054000001 90:0.055 91:0.059 92:0.043000001 93:0.057 94:0.046999998 95:0.059 96:0.043000001 97:0.054000001 98:0.043000001 99:0.052999999 100:0.043000001 101:0.052000001 102:0.050999999 103:0.056000002 104:0.07 105:0.056000002 106:0.063000001 107:0.052999999 108:0.074000001 109:0.052999999 110:0.039000001 111:0.057 112:0.02 113:0.059999999 114:0.059 115:0.061000001 116:0.055 117:0.056000002 118:0.055 119:0.057 120:0.050999999 121:0.061999999 122:0.055 123:0.057999998 124:0.046999998 125:0.055 126:0.039000001 127:0.057 128:0.055 
54.28212930642585 1:0.11 2:0.046999998 3:0.11 4:0.055 5:0.11 6:0.055 7:0.11 8:0.055 9:0.1 10:0.050999999 11:0.11 12:0.050999999 13:0.11 14:0.059 15:0.11 16:0.063000001 17:0.097999997 18:0.016000001 19:0.11 20:0.023 21:0.11 22:0.030999999 23:0.11 24:0.035 25:0.11 26:0.030999999 27:0.11 28:0.039000001 29:0.11 30:0.016000001 31:0.1 32:0.016000001 33:0.094999999 34:0.030999999 35:0.1 36:0.039000001 37:0.093000002 38:0.027000001 39:0.090000004 40:0.0077999998 41:0.093999997 42:0.016000001 43:0.11 44:0.066 45:0.11 46:0.063000001 47:0.11 48:0.030999999 49:0.098999999 50:0.059 51:0.12 52:0.039000001 53:0.097999997 54:0.046999998 55:0.096000001 56:0.050999999 57:0.094999999 58:0.050999999 59:0.11 60:0.12 61:0.1 62:0.082000002 63:0.1 64:0.050999999 65:0.089000002 66:0.059 67:0.1 68:0.039000001 69:0.090000004 70:0.039000001 71:0.092 72:0.050999999 73:0.090999998 74:0.050999999 75:0.1 76:0.082000002 77:0.11 78:0.086000003 79:0.097999997 80:0.039000001 81:0.093000002 82:0.0077999998 83:0.088 84:0.0077999998 85:0.090000004 86:0.055 87:0.1 88:0.055 89:0.097000003 90:0.050999999 91:0.11 92:0.055 93:0.11 94:0.074000001 95:0.097000003 96:0.063000001 97:0.1 98:0.07 99:0.11 100:0.074000001 101:0.093999997 102:0.066 103:0.1 104:0.063000001 105:0.090000004 106:0.046999998 107:0.1 108:0.046999998 109:0.11 110:0.055 111:0.098999999 112:0.082000002 113:0.088 114:0.02 115:0.086999997 116:0.016000001 117:0.086999997 118:0.0077999998 119:0.086999997 120:0.0077999998 121:0.086999997 122:0.0077999998 123:0.085000001 124:0.0077999998 125:0.083999999 126:0.012 127:0.088 128:0.016000001 
26.13067388385432 1:0.046999998 2:0.17 3:0.046999998 4:0.17 5:0.045000002 6:0.19 7:0.046 8:0.19 9:0.046 10:0.2 11:0.052000001 12:0.16 13:0.054000001 14:0.078000002 15:0.050999999 16:0.050999999 17:0.043000001 18:0.046999998 19:0.043000001 20:0.066 21:0.046999998 22:0.059 23:0.048999999 24:0.055 25:0.052000001 26:0.050999999 27:0.046 28:0.066 29:0.041999999 30:0.027000001 31:0.043000001 32:0.027000001 33:0.035999998 34:0.074000001 35:0.037 36:0.066 37:0.032000002 38:0.039000001 39:0.037999999 40:0.027000001 41:0.037 42:0.030999999 43:0.041999999 44:0.11 45:0.048 46:0.07 47:0.043000001 48:0.12 49:0.045000002 50:0.16 51:0.061999999 52:0.050999999 53:0.037 54:0.093999997 55:0.041999999 56:0.078000002 57:0.039000001 58:0.063000001 59:0.048 60:0.14 61:0.052999999 62:0.082000002 63:0.041999999 64:0.097999997 65:0.041000001 66:0.11 67:0.048999999 68:0.066 69:0.032000002 70:0.066 71:0.034000002 72:0.074000001 73:0.034000002 74:0.07 75:0.050000001 76:0.14 77:0.052000001 78:0.078000002 79:0.041000001 80:0.093999997 81:0.039999999 82:0.035 83:0.033 84:0.043000001 85:0.034000002 86:0.074000001 87:0.041999999 88:0.082000002 89:0.035 90:0.090000004 91:0.039000001 92:0.090000004 93:0.043000001 94:0.093999997 95:0.035999998 96:0.066 97:0.046 98:0.13 99:0.045000002 100:0.13 101:0.037999999 102:0.063000001 103:0.041999999 104:0.074000001 105:0.035999998 106:0.035 107:0.035 108:0.035 109:0.035 110:0.039000001 111:0.039000001 112:0.039000001 113:0.039000001 114:0.11 115:0.041000001 116:0.043000001 117:0.035999998 118:0.043000001 119:0.035 120:0.030999999 121:0.035999998 122:0.035 123:0.037999999 124:0.046999998 125:0.039000001 126:0.039000001 127:0.039000001 128:0.039000001 
11.35828982734019 1:0.078000002 2:0.090000004 3:0.079999998 4:0.016000001 5:0.081 6:0.016000001 7:0.082999997 8:0.016000001 9:0.088 10:0.016000001 11:0.081 12:0.023 13:0.086000003 14:0.02 15:0.088 16:0.023 17:0.083999999 18:0.063000001 19:0.086999997 20:0.07 21:0.083999999 22:0.016000001 23:0.081 24:0.016000001 25:0.082999997 26:0.016000001 27:0.078000002 28:0.055 29:0.072999999 30:0.093999997 31:0.079999998 32:0.016000001 33:0.077 34:0.066 35:0.077 36:0.074000001 37:0.092 38:0.066 39:0.081 40:0.050999999 41:0.081 42:0.023 43:0.079000004 44:0.063000001 45:0.071999997 46:0.1 47:0.081 48:0.082000002 49:0.079000004 50:0.074000001 51:0.081 52:0.082000002 53:0.090999998 54:0.066 55:0.090000004 56:0.059 57:0.090999998 58:0.063000001 59:0.082000002 60:0.063000001 61:0.079000004 62:0.074000001 63:0.086000003 64:0.059 65:0.075000003 66:0.055 67:0.082000002 68:0.093999997 69:0.082000002 70:0.078000002 71:0.086000003 72:0.023 73:0.081 74:0.016000001 75:0.079000004 76:0.074000001 77:0.075999998 78:0.07 79:0.082999997 80:0.078000002 81:0.078000002 82:0.074000001 83:0.085000001 84:0.082000002 85:0.081 86:0.055 87:0.088 88:0.063000001 89:0.078000002 90:0.059 91:0.075999998 92:0.078000002 93:0.071000002 94:0.078000002 95:0.077 96:0.14 97:0.079000004 98:0.082000002 99:0.086999997 100:0.11 101:0.085000001 102:0.078000002 103:0.082999997 104:0.07 105:0.072999999 106:0.07 107:0.077 108:0.059 109:0.079999998 110:0.055 111:0.082999997 112:0.11 113:0.071000002 114:0.063000001 115:0.074000001 116:0.07 117:0.077 118:0.059 119:0.075000003 120:0.055 121:0.072999999 122:0.07 123:0.077 124:0.055 125:0.075000003 126:0.050999999 127:0.078000002 128:0.063000001 
60 1:0.068999998 2:0.066 3:0.068000004 4:0.023 5:0.071000002 6:0.02 7:0.072999999 8:0.02 9:0.075000003 10:0.02 11:0.071999997 12:0.02 13:0.081 14:0.016000001 15:0.083999999 16:0.023 17:0.075000003 18:0.063000001 19:0.075999998 20:0.082000002 21:0.072999999 22:0.063000001 23:0.068999998 24:0.016000001 25:0.068000004 26:0.02 27:0.067000002 28:0.066 29:0.061999999 30:0.11 31:0.072999999 32:0.016000001 33:0.071000002 34:0.078000002 35:0.071000002 36:0.082000002 37:0.081 38:0.086000003 39:0.071000002 40:0.074000001 41:0.068999998 42:0.030999999 43:0.071000002 44:0.07 45:0.064999998 46:0.093999997 47:0.075000003 48:0.07 49:0.07 50:0.093999997 51:0.071999997 52:0.090000004 53:0.081 54:0.078000002 55:0.075999998 56:0.063000001 57:0.077 58:0.059 59:0.071999997 60:0.059 61:0.072999999 62:0.066 63:0.077 64:0.074000001 65:0.066 66:0.027000001 67:0.072999999 68:0.093999997 69:0.071999997 70:0.066 71:0.072999999 72:0.030999999 73:0.07 74:0.02 75:0.068000004 76:0.086000003 77:0.068000004 78:0.063000001 79:0.071999997 80:0.086000003 81:0.068999998 82:0.086000003 83:0.074000001 84:0.086000003 85:0.071000002 86:0.074000001 87:0.075999998 88:0.059 89:0.07 90:0.055 91:0.068999998 92:0.074000001 93:0.064000003 94:0.074000001 95:0.067000002 96:0.16 97:0.068999998 98:0.082000002 99:0.075000003 100:0.093999997 101:0.074000001 102:0.07 103:0.071999997 104:0.066 105:0.064999998 106:0.066 107:0.068999998 108:0.063000001 109:0.072999999 110:0.046999998 111:0.071999997 112:0.1 113:0.061000001 114:0.055 115:0.064000003 116:0.050999999 117:0.067000002 118:0.055 119:0.066 120:0.055 121:0.064999998 122:0.059 123:0.068000004 124:0.055 125:0.067000002 126:0.063000001 127:0.066 128:0.066 
60 1:0.052000001 2:0.16 3:0.050000001 4:0.039000001 5:0.054000001 6:0.023 7:0.055 8:0.02 9:0.059 10:0.023 11:0.052999999 12:0.023 13:0.054000001 14:0.023 15:0.056000002 16:0.030999999 17:0.057 18:0.086000003 19:0.059999999 20:0.11 21:0.055 22:0.082000002 23:0.048999999 24:0.023 25:0.050999999 26:0.023 27:0.050000001 28:0.07 29:0.046 30:0.17 31:0.045000002 32:0.027000001 33:0.055 34:0.097999997 35:0.054000001 36:0.097999997 37:0.067000002 38:0.1 39:0.056000002 40:0.093999997 41:0.052000001 42:0.027000001 43:0.061000001 44:0.090000004 45:0.057999998 46:0.1 47:0.048 48:0.035 49:0.050999999 50:0.1 51:0.052000001 52:0.12 53:0.061000001 54:0.11 55:0.063000001 56:0.097999997 57:0.066 58:0.063000001 59:0.059 60:0.082000002 61:0.057999998 62:0.082000002 63:0.052000001 64:0.07 65:0.046 66:0.030999999 67:0.050000001 68:0.11 69:0.050000001 70:0.082000002 71:0.054000001 72:0.030999999 73:0.052000001 74:0.027000001 75:0.055 76:0.097999997 77:0.056000002 78:0.086000003 79:0.052000001 80:0.13 81:0.054000001 82:0.12 83:0.059 84:0.12 85:0.054000001 86:0.11 87:0.059999999 88:0.066 89:0.052000001 90:0.059 91:0.054000001 92:0.074000001 93:0.055 94:0.082000002 95:0.052999999 96:0.16 97:0.050999999 98:0.11 99:0.057 100:0.12 101:0.057 102:0.11 103:0.057999998 104:0.07 105:0.050999999 106:0.082000002 107:0.052999999 108:0.07 109:0.057999998 110:0.063000001 111:0.056000002 112:0.11 113:0.043000001 114:0.07 115:0.046 116:0.055 117:0.048 118:0.046999998 119:0.048999999 120:0.046999998 121:0.043000001 122:0.063000001 123:0.050999999 124:0.055 125:0.046 126:0.059 127:0.046999998 128:0.086000003 
59.63282965109895 1:0.039000001 2:0.18000001 3:0.039999999 4:0.16 5:0.044 6:0.16 7:0.044 8:0.2 9:0.046999998 10:0.15000001 11:0.043000001 12:0.17 13:0.046999998 14:0.12 15:0.041000001 16:0.063000001 17:0.041999999 18:0.16 19:0.045000002 20:0.15000001 21:0.039999999 22:0.050999999 23:0.043000001 24:0.027000001 25:0.043000001 26:0.035 27:0.045000002 28:0.066 29:0.046999998 30:0.1 31:0.039999999 32:0.030999999 33:0.041000001 34:0.17 35:0.039999999 36:0.16 37:0.052999999 38:0.12 39:0.048 40:0.066 41:0.039999999 42:0.027000001 43:0.048 44:0.11 45:0.052999999 46:0.11 47:0.039000001 48:0.043000001 49:0.041000001 50:0.17 51:0.044 52:0.16 53:0.052999999 54:0.13 55:0.052999999 56:0.090000004 57:0.048 58:0.074000001 59:0.046 60:0.13 61:0.050000001 62:0.11 63:0.037999999 64:0.046999998 65:0.034000002 66:0.14 67:0.044 68:0.16 69:0.046 70:0.097999997 71:0.048 72:0.1 73:0.035999998 74:0.07 75:0.046 76:0.12 77:0.048 78:0.093999997 79:0.035999998 80:0.046999998 81:0.034000002 82:0.18000001 83:0.041000001 84:0.16 85:0.043000001 86:0.11 87:0.046999998 88:0.07 89:0.041999999 90:0.086000003 91:0.046 92:0.11 93:0.046999998 94:0.11 95:0.039999999 96:0.086000003 97:0.037 98:0.16 99:0.046999998 100:0.16 101:0.050999999 102:0.13 103:0.050000001 104:0.090000004 105:0.048 106:0.097999997 107:0.045000002 108:0.090000004 109:0.046 110:0.074000001 111:0.041999999 112:0.082000002 113:0.033 114:0.16 115:0.033 116:0.16 117:0.030999999 118:0.13 119:0.028999999 120:0.074000001 121:0.032000002 122:0.046999998 123:0.032000002 124:0.050999999 125:0.029999999 126:0.043000001 127:0.028999999 128:0.046999998 
25.71127651910328 1:0.041000001 2:0.16 3:0.043000001 4:0.15000001 5:0.044 6:0.17 7:0.044 8:0.18000001 9:0.046999998 10:0.17 11:0.041999999 12:0.18000001 13:0.046999998 14:0.13 15:0.043000001 16:0.07 17:0.045000002 18:0.16 19:0.045000002 20:0.16 21:0.037999999 22:0.039000001 23:0.041999999 24:0.030999999 25:0.043000001 26:0.030999999 27:0.046 28:0.086000003 29:0.045000002 30:0.12 31:0.037999999 32:0.043000001 33:0.041999999 34:0.14 35:0.039000001 36:0.18000001 37:0.048999999 38:0.13 39:0.046999998 40:0.063000001 41:0.039999999 42:0.027000001 43:0.052000001 44:0.082000002 45:0.057 46:0.12 47:0.037 48:0.043000001 49:0.043000001 50:0.13 51:0.041999999 52:0.17 53:0.050999999 54:0.12 55:0.054000001 56:0.07 57:0.048 58:0.074000001 59:0.048999999 60:0.1 61:0.048999999 62:0.093999997 63:0.035999998 64:0.046999998 65:0.037 66:0.11 67:0.043000001 68:0.15000001 69:0.048 70:0.11 71:0.046999998 72:0.086000003 73:0.041000001 74:0.059 75:0.045000002 76:0.12 77:0.046999998 78:0.090000004 79:0.035 80:0.063000001 81:0.035 82:0.16 83:0.043000001 84:0.16 85:0.044 86:0.093999997 87:0.046 88:0.082000002 89:0.043000001 90:0.086000003 91:0.046 92:0.097999997 93:0.045000002 94:0.1 95:0.037 96:0.082000002 97:0.037999999 98:0.13 99:0.048999999 100:0.15000001 101:0.052000001 102:0.1 103:0.050999999 104:0.086000003 105:0.050999999 106:0.093999997 107:0.045000002 108:0.093999997 109:0.048 110:0.066 111:0.041999999 112:0.074000001 113:0.033 114:0.16 115:0.037 116:0.14 117:0.033 118:0.093999997 119:0.032000002 120:0.07 121:0.034000002 122:0.043000001 123:0.035 124:0.050999999 125:0.032000002 126:0.046999998 127:0.028999999 128:0.050999999 
60 1:0.071000002 2:0.046999998 3:0.071000002 4:0.059 5:0.072999999 6:0.063000001 7:0.075999998 8:0.059 9:0.075999998 10:0.090000004 11:0.079999998 12:0.046999998 13:0.075000003 14:0.016000001 15:0.075000003 16:0.016000001 17:0.072999999 18:0.093999997 19:0.077 20:0.066 21:0.068999998 22:0.039000001 23:0.068999998 24:0.0077999998 25:0.068999998 26:0.0077999998 27:0.078000002 28:0.046999998 29:0.079000004 30:0.055 31:0.068000004 32:0.012 33:0.075000003 34:0.086000003 35:0.071000002 36:0.066 37:0.085000001 38:0.063000001 39:0.075000003 40:0.059 41:0.066 42:0.0077999998 43:0.085000001 44:0.086000003 45:0.1 46:0.082000002 47:0.071000002 48:0.039000001 49:0.072999999 50:0.11 51:0.079000004 52:0.082000002 53:0.086000003 54:0.07 55:0.083999999 56:0.059 57:0.074000001 58:0.050999999 59:0.082999997 60:0.12 61:0.1 62:0.082000002 63:0.068999998 64:0.059 65:0.057999998 66:0.074000001 67:0.075999998 68:0.086000003 69:0.075000003 70:0.063000001 71:0.068000004 72:0.02 73:0.059999999 74:0.039000001 75:0.074000001 76:0.11 77:0.090000004 78:0.086000003 79:0.068000004 80:0.082000002 81:0.068000004 82:0.090000004 83:0.078000002 84:0.11 85:0.077 86:0.066 87:0.077 88:0.055 89:0.061000001 90:0.050999999 91:0.077 92:0.11 93:0.083999999 94:0.086000003 95:0.067000002 96:0.14 97:0.071999997 98:0.093999997 99:0.085000001 100:0.097999997 101:0.082000002 102:0.086000003 103:0.07 104:0.07 105:0.067000002 106:0.059 107:0.064000003 108:0.074000001 109:0.079000004 110:0.063000001 111:0.064000003 112:0.055 113:0.061000001 114:0.097999997 115:0.063000001 116:0.093999997 117:0.061999999 118:0.090000004 119:0.059999999 120:0.082000002 121:0.059999999 122:0.078000002 123:0.057999998 124:0.090000004 125:0.056000002 126:0.035 127:0.057999998 128:0.039000001 
42.41320269362183 1:0.07 2:0.043000001 3:0.07 4:0.07 5:0.072999999 6:0.043000001 7:0.072999999 8:0.078000002 9:0.074000001 10:0.07 11:0.075999998 12:0.086000003 13:0.075000003 14:0.14 15:0.074000001 16:0.063000001 17:0.071999997 18:0.11 19:0.075000003 20:0.059 21:0.066 22:0.0077999998 23:0.068000004 24:0.012 25:0.066 26:0.0077999998 27:0.071999997 28:0.043000001 29:0.074000001 30:0.059 31:0.064999998 32:0.012 33:0.072999999 34:0.090000004 35:0.07 36:0.055 37:0.083999999 38:0.063000001 39:0.071999997 40:0.043000001 41:0.064000003 42:0.0077999998 43:0.075999998 44:0.097999997 45:0.093000002 46:0.074000001 47:0.067000002 48:0.046999998 49:0.074000001 50:0.13 51:0.081 52:0.082000002 53:0.092 54:0.066 55:0.089000002 56:0.063000001 57:0.071999997 58:0.050999999 59:0.078000002 60:0.14 61:0.092 62:0.090000004 63:0.064999998 64:0.063000001 65:0.061000001 66:0.090000004 67:0.079000004 68:0.082000002 69:0.082999997 70:0.063000001 71:0.075999998 72:0.050999999 73:0.063000001 74:0.039000001 75:0.074000001 76:0.11 77:0.085000001 78:0.082000002 79:0.064999998 80:0.050999999 81:0.07 82:0.090000004 83:0.078000002 84:0.097999997 85:0.079000004 86:0.07 87:0.079000004 88:0.055 89:0.068999998 90:0.050999999 91:0.077 92:0.082000002 93:0.085000001 94:0.07 95:0.067000002 96:0.12 97:0.072999999 98:0.090000004 99:0.086000003 100:0.097999997 101:0.083999999 102:0.074000001 103:0.071999997 104:0.063000001 105:0.072999999 106:0.055 107:0.068000004 108:0.063000001 109:0.079999998 110:0.055 111:0.064000003 112:0.050999999 113:0.061000001 114:0.11 115:0.063000001 116:0.11 117:0.064000003 118:0.082000002 119:0.066 120:0.066 121:0.068000004 122:0.086000003 123:0.066 124:0.11 125:0.061999999 126:0.043000001 127:0.061999999 128:0.039000001 
60 1:0.067000002 2:0.030999999 3:0.067000002 4:0.039000001 5:0.07 6:0.066 7:0.071999997 8:0.066 9:0.071000002 10:0.082000002 11:0.075000003 12:0.055 13:0.075000003 14:0.074000001 15:0.077 16:0.046999998 17:0.071000002 18:0.093999997 19:0.072999999 20:0.055 21:0.064999998 22:0.0077999998 23:0.064999998 24:0.0077999998 25:0.064000003 26:0.012 27:0.07 28:0.043000001 29:0.075999998 30:0.039000001 31:0.067000002 32:0.016000001 33:0.071999997 34:0.082000002 35:0.068000004 36:0.055 37:0.082999997 38:0.063000001 39:0.07 40:0.043000001 41:0.064000003 42:0.012 43:0.079000004 44:0.07 45:0.098999999 46:0.059 47:0.068999998 48:0.050999999 49:0.072999999 50:0.11 51:0.079000004 52:0.086000003 53:0.088 54:0.055 55:0.086999997 56:0.050999999 57:0.072999999 58:0.039000001 59:0.082999997 60:0.090000004 61:0.098999999 62:0.07 63:0.071999997 64:0.082000002 65:0.057 66:0.063000001 67:0.075999998 68:0.082000002 69:0.079000004 70:0.050999999 71:0.071000002 72:0.039000001 73:0.063000001 74:0.039000001 75:0.072999999 76:0.07 77:0.090000004 78:0.07 79:0.068999998 80:0.086000003 81:0.067000002 82:0.097999997 83:0.075999998 84:0.1 85:0.074000001 86:0.059 87:0.075000003 88:0.046999998 89:0.059 90:0.050999999 91:0.075999998 92:0.086000003 93:0.086999997 94:0.074000001 95:0.071000002 96:0.11 97:0.071000002 98:0.090000004 99:0.082999997 100:0.097999997 101:0.078000002 102:0.074000001 103:0.066 104:0.074000001 105:0.064999998 106:0.050999999 107:0.063000001 108:0.066 109:0.078000002 110:0.055 111:0.066 112:0.039000001 113:0.059 114:0.086000003 115:0.059 116:0.1 117:0.059 118:0.078000002 119:0.059999999 120:0.074000001 121:0.059999999 122:0.07 123:0.059999999 124:0.13 125:0.057 126:0.043000001 127:0.061000001 128:0.035 
46.05408434016083 1:0.089000002 2:0.027000001 3:0.097000003 4:0.023 5:0.1 6:0.023 7:0.1 8:0.027000001 9:0.11 10:0.023 11:0.11 12:0.030999999 13:0.1 14:0.023 15:0.097000003 16:0.023 17:0.097999997 18:0.090000004 19:0.12 20:0.093999997 21:0.11 22:0.086000003 23:0.11 24:0.063000001 25:0.11 26:0.059 27:0.11 28:0.059 29:0.11 30:0.066 31:0.1 32:0.055 33:0.093999997 34:0.027000001 35:0.11 36:0.063000001 37:0.11 38:0.078000002 39:0.11 40:0.063000001 41:0.12 42:0.055 43:0.11 44:0.086000003 45:0.11 46:0.055 47:0.1 48:0.059 49:0.089000002 50:0.016000001 51:0.11 52:0.050999999 53:0.11 54:0.039000001 55:0.1 56:0.050999999 57:0.11 58:0.063000001 59:0.11 60:0.078000002 61:0.11 62:0.043000001 63:0.1 64:0.074000001 65:0.090000004 66:0.066 67:0.11 68:0.093999997 69:0.11 70:0.055 71:0.11 72:0.059 73:0.11 74:0.055 75:0.11 76:0.078000002 77:0.11 78:0.059 79:0.1 80:0.066 81:0.092 82:0.050999999 83:0.11 84:0.063000001 85:0.11 86:0.063000001 87:0.11 88:0.059 89:0.11 90:0.050999999 91:0.11 92:0.063000001 93:0.1 94:0.066 95:0.097000003 96:0.050999999 97:0.093999997 98:0.046999998 99:0.11 100:0.059 101:0.11 102:0.055 103:0.11 104:0.050999999 105:0.11 106:0.050999999 107:0.11 108:0.050999999 109:0.11 110:0.035 111:0.1 112:0.027000001 113:0.078000002 114:0.035 115:0.085000001 116:0.039000001 117:0.090000004 118:0.039000001 119:0.092 120:0.035 121:0.094999999 122:0.050999999 123:0.092 124:0.039000001 125:0.090000004 126:0.050999999 127:0.090999998 128:0.030999999 
23.75621392718326 1:0.083999999 2:0.016000001 3:0.092 4:0.023 5:0.097000003 6:0.023 7:0.097999997 8:0.023 9:0.1 10:0.023 11:0.1 12:0.02 13:0.097999997 14:0.02 15:0.086999997 16:0.016000001 17:0.090999998 18:0.046999998 19:0.11 20:0.07 21:0.11 22:0.066 23:0.11 24:0.050999999 25:0.11 26:0.050999999 27:0.1 28:0.055 29:0.098999999 30:0.082000002 31:0.082999997 32:0.050999999 33:0.082999997 34:0.023 35:0.1 36:0.030999999 37:0.1 38:0.055 39:0.11 40:0.050999999 41:0.12 42:0.039000001 43:0.1 44:0.066 45:0.12 46:0.063000001 47:0.086000003 48:0.11 49:0.081 50:0.027000001 51:0.090000004 52:0.035 53:0.094999999 54:0.030999999 55:0.11 56:0.043000001 57:0.11 58:0.050999999 59:0.1 60:0.039000001 61:0.12 62:0.063000001 63:0.086000003 64:0.035 65:0.083999999 66:0.050999999 67:0.097000003 68:0.066 69:0.094999999 70:0.039000001 71:0.1 72:0.050999999 73:0.1 74:0.055 75:0.11 76:0.086000003 77:0.11 78:0.082000002 79:0.092 80:0.12 81:0.083999999 82:0.046999998 83:0.098999999 84:0.063000001 85:0.1 86:0.055 87:0.1 88:0.043000001 89:0.1 90:0.043000001 91:0.1 92:0.035 93:0.1 94:0.030999999 95:0.090000004 96:0.016000001 97:0.078000002 98:0.035 99:0.097999997 100:0.050999999 101:0.096000001 102:0.050999999 103:0.1 104:0.055 105:0.11 106:0.050999999 107:0.1 108:0.023 109:0.11 110:0.023 111:0.090000004 112:0.027000001 113:0.072999999 114:0.023 115:0.079999998 116:0.023 117:0.075000003 118:0.027000001 119:0.078000002 120:0.023 121:0.081 122:0.023 123:0.078000002 124:0.023 125:0.074000001 126:0.027000001 127:0.074000001 128:0.027000001 
